digraph Tree {
node [shape=box, style="filled, rounded", color="black", fontname=helvetica] ;
edge [fontname=helvetica] ;
0 [label=<CR &le; 6.995<br/>gini = 0.35<br/>samples = 9736<br/>value = [7532, 2204]>, fillcolor="#e58139b4"] ;
1 [label=<CR &le; 6.195<br/>gini = 0.045<br/>samples = 6618<br/>value = [6466, 152]>, fillcolor="#e58139f9"] ;
0 -> 1 [labeldistance=2.5, labelangle=45, headlabel="True"] ;
2 [label=<CR &le; 5.595<br/>gini = 0.01<br/>samples = 6004<br/>value = [5974, 30]>, fillcolor="#e58139fe"] ;
1 -> 2 ;
3 [label=<ENEMMATEMATICA &le; 327.25<br/>gini = 0.003<br/>samples = 5624<br/>value = [5616, 8]>, fillcolor="#e58139ff"] ;
2 -> 3 ;
4 [label=<ENEMMATEMATICA &le; 323.4<br/>gini = 0.375<br/>samples = 4<br/>value = [3, 1]>, fillcolor="#e58139aa"] ;
3 -> 4 ;
5 [label=<gini = 0.0<br/>samples = 3<br/>value = [3, 0]>, fillcolor="#e58139ff"] ;
4 -> 5 ;
6 [label=<gini = 0.0<br/>samples = 1<br/>value = [0, 1]>, fillcolor="#399de5ff"] ;
4 -> 6 ;
7 [label=<CURSO &le; 4.5<br/>gini = 0.002<br/>samples = 5620<br/>value = [5613, 7]>, fillcolor="#e58139ff"] ;
3 -> 7 ;
8 [label=<CR &le; 4.77<br/>gini = 0.025<br/>samples = 313<br/>value = [309, 4]>, fillcolor="#e58139fc"] ;
7 -> 8 ;
9 [label=<ENEMLINGUAGEM &le; 573.25<br/>gini = 0.007<br/>samples = 285<br/>value = [284, 1]>, fillcolor="#e58139fe"] ;
8 -> 9 ;
10 [label=<ENEMLINGUAGEM &le; 572.3<br/>gini = 0.05<br/>samples = 39<br/>value = [38, 1]>, fillcolor="#e58139f8"] ;
9 -> 10 ;
11 [label=<gini = 0.0<br/>samples = 38<br/>value = [38, 0]>, fillcolor="#e58139ff"] ;
10 -> 11 ;
12 [label=<gini = 0.0<br/>samples = 1<br/>value = [0, 1]>, fillcolor="#399de5ff"] ;
10 -> 12 ;
13 [label=<gini = 0.0<br/>samples = 246<br/>value = [246, 0]>, fillcolor="#e58139ff"] ;
9 -> 13 ;
14 [label=<ANOINGRESSO &le; 2012.5<br/>gini = 0.191<br/>samples = 28<br/>value = [25, 3]>, fillcolor="#e58139e0"] ;
8 -> 14 ;
15 [label=<SEXO &le; 0.5<br/>gini = 0.5<br/>samples = 4<br/>value = [2, 2]>, fillcolor="#e5813900"] ;
14 -> 15 ;
16 [label=<gini = 0.0<br/>samples = 2<br/>value = [2, 0]>, fillcolor="#e58139ff"] ;
15 -> 16 ;
17 [label=<gini = 0.0<br/>samples = 2<br/>value = [0, 2]>, fillcolor="#399de5ff"] ;
15 -> 17 ;
18 [label=<ENEMREDACAO &le; 870.0<br/>gini = 0.08<br/>samples = 24<br/>value = [23, 1]>, fillcolor="#e58139f4"] ;
14 -> 18 ;
19 [label=<gini = 0.0<br/>samples = 20<br/>value = [20, 0]>, fillcolor="#e58139ff"] ;
18 -> 19 ;
20 [label=<ENEMREDACAO &le; 930.0<br/>gini = 0.375<br/>samples = 4<br/>value = [3, 1]>, fillcolor="#e58139aa"] ;
18 -> 20 ;
21 [label=<gini = 0.0<br/>samples = 1<br/>value = [0, 1]>, fillcolor="#399de5ff"] ;
20 -> 21 ;
22 [label=<gini = 0.0<br/>samples = 3<br/>value = [3, 0]>, fillcolor="#e58139ff"] ;
20 -> 22 ;
23 [label=<ENEMHUMANAS &le; 441.9<br/>gini = 0.001<br/>samples = 5307<br/>value = [5304, 3]>, fillcolor="#e58139ff"] ;
7 -> 23 ;
24 [label=<CR &le; 5.25<br/>gini = 0.025<br/>samples = 79<br/>value = [78, 1]>, fillcolor="#e58139fc"] ;
23 -> 24 ;
25 [label=<gini = 0.0<br/>samples = 77<br/>value = [77, 0]>, fillcolor="#e58139ff"] ;
24 -> 25 ;
26 [label=<IDADE &le; 25.5<br/>gini = 0.5<br/>samples = 2<br/>value = [1, 1]>, fillcolor="#e5813900"] ;
24 -> 26 ;
27 [label=<gini = 0.0<br/>samples = 1<br/>value = [1, 0]>, fillcolor="#e58139ff"] ;
26 -> 27 ;
28 [label=<gini = 0.0<br/>samples = 1<br/>value = [0, 1]>, fillcolor="#399de5ff"] ;
26 -> 28 ;
29 [label=<IDADE &le; 31.5<br/>gini = 0.001<br/>samples = 5228<br/>value = [5226, 2]>, fillcolor="#e58139ff"] ;
23 -> 29 ;
30 [label=<gini = 0.0<br/>samples = 4353<br/>value = [4353, 0]>, fillcolor="#e58139ff"] ;
29 -> 30 ;
31 [label=<IDADE &le; 32.5<br/>gini = 0.005<br/>samples = 875<br/>value = [873, 2]>, fillcolor="#e58139fe"] ;
29 -> 31 ;
32 [label=<CR &le; 4.2<br/>gini = 0.036<br/>samples = 110<br/>value = [108, 2]>, fillcolor="#e58139fa"] ;
31 -> 32 ;
33 [label=<gini = 0.0<br/>samples = 92<br/>value = [92, 0]>, fillcolor="#e58139ff"] ;
32 -> 33 ;
34 [label=<CR &le; 4.345<br/>gini = 0.198<br/>samples = 18<br/>value = [16, 2]>, fillcolor="#e58139df"] ;
32 -> 34 ;
35 [label=<gini = 0.0<br/>samples = 1<br/>value = [0, 1]>, fillcolor="#399de5ff"] ;
34 -> 35 ;
36 [label=<ENEMREDACAO &le; 840.0<br/>gini = 0.111<br/>samples = 17<br/>value = [16, 1]>, fillcolor="#e58139ef"] ;
34 -> 36 ;
37 [label=<gini = 0.0<br/>samples = 15<br/>value = [15, 0]>, fillcolor="#e58139ff"] ;
36 -> 37 ;
38 [label=<CR &le; 5.25<br/>gini = 0.5<br/>samples = 2<br/>value = [1, 1]>, fillcolor="#e5813900"] ;
36 -> 38 ;
39 [label=<gini = 0.0<br/>samples = 1<br/>value = [0, 1]>, fillcolor="#399de5ff"] ;
38 -> 39 ;
40 [label=<gini = 0.0<br/>samples = 1<br/>value = [1, 0]>, fillcolor="#e58139ff"] ;
38 -> 40 ;
41 [label=<gini = 0.0<br/>samples = 765<br/>value = [765, 0]>, fillcolor="#e58139ff"] ;
31 -> 41 ;
42 [label=<IDADE &le; 25.5<br/>gini = 0.109<br/>samples = 380<br/>value = [358, 22]>, fillcolor="#e58139ef"] ;
2 -> 42 ;
43 [label=<ENEMMATEMATICA &le; 683.4<br/>gini = 0.044<br/>samples = 268<br/>value = [262, 6]>, fillcolor="#e58139f9"] ;
42 -> 43 ;
44 [label=<gini = 0.0<br/>samples = 110<br/>value = [110, 0]>, fillcolor="#e58139ff"] ;
43 -> 44 ;
45 [label=<ENEMMATEMATICA &le; 683.95<br/>gini = 0.073<br/>samples = 158<br/>value = [152, 6]>, fillcolor="#e58139f5"] ;
43 -> 45 ;
46 [label=<gini = 0.0<br/>samples = 1<br/>value = [0, 1]>, fillcolor="#399de5ff"] ;
45 -> 46 ;
47 [label=<ENEMNATURAIS &le; 588.25<br/>gini = 0.062<br/>samples = 157<br/>value = [152, 5]>, fillcolor="#e58139f7"] ;
45 -> 47 ;
48 [label=<ENEMNATURAIS &le; 583.05<br/>gini = 0.255<br/>samples = 20<br/>value = [17, 3]>, fillcolor="#e58139d2"] ;
47 -> 48 ;
49 [label=<ENEMMATEMATICA &le; 751.1<br/>gini = 0.111<br/>samples = 17<br/>value = [16, 1]>, fillcolor="#e58139ef"] ;
48 -> 49 ;
50 [label=<gini = 0.0<br/>samples = 15<br/>value = [15, 0]>, fillcolor="#e58139ff"] ;
49 -> 50 ;
51 [label=<SEMESTREINGRESSO &le; 1.5<br/>gini = 0.5<br/>samples = 2<br/>value = [1, 1]>, fillcolor="#e5813900"] ;
49 -> 51 ;
52 [label=<gini = 0.0<br/>samples = 1<br/>value = [0, 1]>, fillcolor="#399de5ff"] ;
51 -> 52 ;
53 [label=<gini = 0.0<br/>samples = 1<br/>value = [1, 0]>, fillcolor="#e58139ff"] ;
51 -> 53 ;
54 [label=<CURSO &le; 21.5<br/>gini = 0.444<br/>samples = 3<br/>value = [1, 2]>, fillcolor="#399de57f"] ;
48 -> 54 ;
55 [label=<gini = 0.0<br/>samples = 1<br/>value = [1, 0]>, fillcolor="#e58139ff"] ;
54 -> 55 ;
56 [label=<gini = 0.0<br/>samples = 2<br/>value = [0, 2]>, fillcolor="#399de5ff"] ;
54 -> 56 ;
57 [label=<ENEMHUMANAS &le; 556.9<br/>gini = 0.029<br/>samples = 137<br/>value = [135, 2]>, fillcolor="#e58139fb"] ;
47 -> 57 ;
58 [label=<SEXO &le; 0.5<br/>gini = 0.5<br/>samples = 2<br/>value = [1, 1]>, fillcolor="#e5813900"] ;
57 -> 58 ;
59 [label=<gini = 0.0<br/>samples = 1<br/>value = [1, 0]>, fillcolor="#e58139ff"] ;
58 -> 59 ;
60 [label=<gini = 0.0<br/>samples = 1<br/>value = [0, 1]>, fillcolor="#399de5ff"] ;
58 -> 60 ;
61 [label=<CR &le; 5.605<br/>gini = 0.015<br/>samples = 135<br/>value = [134, 1]>, fillcolor="#e58139fd"] ;
57 -> 61 ;
62 [label=<ENEMMATEMATICA &le; 713.25<br/>gini = 0.219<br/>samples = 8<br/>value = [7, 1]>, fillcolor="#e58139db"] ;
61 -> 62 ;
63 [label=<gini = 0.0<br/>samples = 1<br/>value = [0, 1]>, fillcolor="#399de5ff"] ;
62 -> 63 ;
64 [label=<gini = 0.0<br/>samples = 7<br/>value = [7, 0]>, fillcolor="#e58139ff"] ;
62 -> 64 ;
65 [label=<gini = 0.0<br/>samples = 127<br/>value = [127, 0]>, fillcolor="#e58139ff"] ;
61 -> 65 ;
66 [label=<ENEMHUMANAS &le; 522.8<br/>gini = 0.245<br/>samples = 112<br/>value = [96, 16]>, fillcolor="#e58139d4"] ;
42 -> 66 ;
67 [label=<ENEMNATURAIS &le; 491.6<br/>gini = 0.444<br/>samples = 6<br/>value = [2, 4]>, fillcolor="#399de57f"] ;
66 -> 67 ;
68 [label=<gini = 0.0<br/>samples = 3<br/>value = [0, 3]>, fillcolor="#399de5ff"] ;
67 -> 68 ;
69 [label=<ENEMHUMANAS &le; 506.65<br/>gini = 0.444<br/>samples = 3<br/>value = [2, 1]>, fillcolor="#e581397f"] ;
67 -> 69 ;
70 [label=<gini = 0.0<br/>samples = 1<br/>value = [0, 1]>, fillcolor="#399de5ff"] ;
69 -> 70 ;
71 [label=<gini = 0.0<br/>samples = 2<br/>value = [2, 0]>, fillcolor="#e58139ff"] ;
69 -> 71 ;
72 [label=<ENEMHUMANAS &le; 617.35<br/>gini = 0.201<br/>samples = 106<br/>value = [94, 12]>, fillcolor="#e58139de"] ;
66 -> 72 ;
73 [label=<ENEMLINGUAGEM &le; 665.85<br/>gini = 0.308<br/>samples = 42<br/>value = [34, 8]>, fillcolor="#e58139c3"] ;
72 -> 73 ;
74 [label=<ENEMHUMANAS &le; 614.1<br/>gini = 0.283<br/>samples = 41<br/>value = [34, 7]>, fillcolor="#e58139ca"] ;
73 -> 74 ;
75 [label=<ENEMREDACAO &le; 670.0<br/>gini = 0.255<br/>samples = 40<br/>value = [34, 6]>, fillcolor="#e58139d2"] ;
74 -> 75 ;
76 [label=<ENEMNATURAIS &le; 447.6<br/>gini = 0.087<br/>samples = 22<br/>value = [21, 1]>, fillcolor="#e58139f3"] ;
75 -> 76 ;
77 [label=<ENEMHUMANAS &le; 552.7<br/>gini = 0.375<br/>samples = 4<br/>value = [3, 1]>, fillcolor="#e58139aa"] ;
76 -> 77 ;
78 [label=<gini = 0.0<br/>samples = 3<br/>value = [3, 0]>, fillcolor="#e58139ff"] ;
77 -> 78 ;
79 [label=<gini = 0.0<br/>samples = 1<br/>value = [0, 1]>, fillcolor="#399de5ff"] ;
77 -> 79 ;
80 [label=<gini = 0.0<br/>samples = 18<br/>value = [18, 0]>, fillcolor="#e58139ff"] ;
76 -> 80 ;
81 [label=<ENEMMATEMATICA &le; 678.85<br/>gini = 0.401<br/>samples = 18<br/>value = [13, 5]>, fillcolor="#e581399d"] ;
75 -> 81 ;
82 [label=<IDADE &le; 26.5<br/>gini = 0.26<br/>samples = 13<br/>value = [11, 2]>, fillcolor="#e58139d1"] ;
81 -> 82 ;
83 [label=<gini = 0.0<br/>samples = 1<br/>value = [0, 1]>, fillcolor="#399de5ff"] ;
82 -> 83 ;
84 [label=<ENEMLINGUAGEM &le; 539.7<br/>gini = 0.153<br/>samples = 12<br/>value = [11, 1]>, fillcolor="#e58139e8"] ;
82 -> 84 ;
85 [label=<ACAOAFIRMATIVA &le; 52.0<br/>gini = 0.444<br/>samples = 3<br/>value = [2, 1]>, fillcolor="#e581397f"] ;
84 -> 85 ;
86 [label=<gini = 0.0<br/>samples = 2<br/>value = [2, 0]>, fillcolor="#e58139ff"] ;
85 -> 86 ;
87 [label=<gini = 0.0<br/>samples = 1<br/>value = [0, 1]>, fillcolor="#399de5ff"] ;
85 -> 87 ;
88 [label=<gini = 0.0<br/>samples = 9<br/>value = [9, 0]>, fillcolor="#e58139ff"] ;
84 -> 88 ;
89 [label=<ENEMMATEMATICA &le; 717.15<br/>gini = 0.48<br/>samples = 5<br/>value = [2, 3]>, fillcolor="#399de555"] ;
81 -> 89 ;
90 [label=<gini = 0.0<br/>samples = 3<br/>value = [0, 3]>, fillcolor="#399de5ff"] ;
89 -> 90 ;
91 [label=<gini = 0.0<br/>samples = 2<br/>value = [2, 0]>, fillcolor="#e58139ff"] ;
89 -> 91 ;
92 [label=<gini = 0.0<br/>samples = 1<br/>value = [0, 1]>, fillcolor="#399de5ff"] ;
74 -> 92 ;
93 [label=<gini = 0.0<br/>samples = 1<br/>value = [0, 1]>, fillcolor="#399de5ff"] ;
73 -> 93 ;
94 [label=<ENEMHUMANAS &le; 739.25<br/>gini = 0.117<br/>samples = 64<br/>value = [60, 4]>, fillcolor="#e58139ee"] ;
72 -> 94 ;
95 [label=<CR &le; 5.705<br/>gini = 0.067<br/>samples = 58<br/>value = [56, 2]>, fillcolor="#e58139f6"] ;
94 -> 95 ;
96 [label=<CURSO &le; 40.5<br/>gini = 0.219<br/>samples = 16<br/>value = [14, 2]>, fillcolor="#e58139db"] ;
95 -> 96 ;
97 [label=<CURSO &le; 25.0<br/>gini = 0.48<br/>samples = 5<br/>value = [3, 2]>, fillcolor="#e5813955"] ;
96 -> 97 ;
98 [label=<gini = 0.0<br/>samples = 3<br/>value = [3, 0]>, fillcolor="#e58139ff"] ;
97 -> 98 ;
99 [label=<gini = 0.0<br/>samples = 2<br/>value = [0, 2]>, fillcolor="#399de5ff"] ;
97 -> 99 ;
100 [label=<gini = 0.0<br/>samples = 11<br/>value = [11, 0]>, fillcolor="#e58139ff"] ;
96 -> 100 ;
101 [label=<gini = 0.0<br/>samples = 42<br/>value = [42, 0]>, fillcolor="#e58139ff"] ;
95 -> 101 ;
102 [label=<CR &le; 5.76<br/>gini = 0.444<br/>samples = 6<br/>value = [4, 2]>, fillcolor="#e581397f"] ;
94 -> 102 ;
103 [label=<gini = 0.0<br/>samples = 4<br/>value = [4, 0]>, fillcolor="#e58139ff"] ;
102 -> 103 ;
104 [label=<gini = 0.0<br/>samples = 2<br/>value = [0, 2]>, fillcolor="#399de5ff"] ;
102 -> 104 ;
105 [label=<ACAOAFIRMATIVA &le; 52.5<br/>gini = 0.318<br/>samples = 614<br/>value = [492, 122]>, fillcolor="#e58139c0"] ;
1 -> 105 ;
106 [label=<ANOINGRESSO &le; 2013.5<br/>gini = 0.248<br/>samples = 497<br/>value = [425, 72]>, fillcolor="#e58139d4"] ;
105 -> 106 ;
107 [label=<CURSO &le; 52.5<br/>gini = 0.34<br/>samples = 276<br/>value = [216, 60]>, fillcolor="#e58139b8"] ;
106 -> 107 ;
108 [label=<IDADE &le; 27.5<br/>gini = 0.224<br/>samples = 148<br/>value = [129, 19]>, fillcolor="#e58139d9"] ;
107 -> 108 ;
109 [label=<CR &le; 6.885<br/>gini = 0.17<br/>samples = 128<br/>value = [116, 12]>, fillcolor="#e58139e5"] ;
108 -> 109 ;
110 [label=<CURSO &le; 29.5<br/>gini = 0.12<br/>samples = 109<br/>value = [102, 7]>, fillcolor="#e58139ee"] ;
109 -> 110 ;
111 [label=<CURSO &le; 28.5<br/>gini = 0.198<br/>samples = 54<br/>value = [48, 6]>, fillcolor="#e58139df"] ;
110 -> 111 ;
112 [label=<CR &le; 6.22<br/>gini = 0.147<br/>samples = 50<br/>value = [46, 4]>, fillcolor="#e58139e9"] ;
111 -> 112 ;
113 [label=<ENEMREDACAO &le; 630.0<br/>gini = 0.444<br/>samples = 3<br/>value = [2, 1]>, fillcolor="#e581397f"] ;
112 -> 113 ;
114 [label=<gini = 0.0<br/>samples = 1<br/>value = [0, 1]>, fillcolor="#399de5ff"] ;
113 -> 114 ;
115 [label=<gini = 0.0<br/>samples = 2<br/>value = [2, 0]>, fillcolor="#e58139ff"] ;
113 -> 115 ;
116 [label=<CURSO &le; 5.0<br/>gini = 0.12<br/>samples = 47<br/>value = [44, 3]>, fillcolor="#e58139ee"] ;
112 -> 116 ;
117 [label=<ENEMLINGUAGEM &le; 566.25<br/>gini = 0.32<br/>samples = 10<br/>value = [8, 2]>, fillcolor="#e58139bf"] ;
116 -> 117 ;
118 [label=<gini = 0.0<br/>samples = 1<br/>value = [0, 1]>, fillcolor="#399de5ff"] ;
117 -> 118 ;
119 [label=<CURSO &le; 3.5<br/>gini = 0.198<br/>samples = 9<br/>value = [8, 1]>, fillcolor="#e58139df"] ;
117 -> 119 ;
120 [label=<gini = 0.0<br/>samples = 6<br/>value = [6, 0]>, fillcolor="#e58139ff"] ;
119 -> 120 ;
121 [label=<ENEMLINGUAGEM &le; 611.6<br/>gini = 0.444<br/>samples = 3<br/>value = [2, 1]>, fillcolor="#e581397f"] ;
119 -> 121 ;
122 [label=<gini = 0.0<br/>samples = 2<br/>value = [2, 0]>, fillcolor="#e58139ff"] ;
121 -> 122 ;
123 [label=<gini = 0.0<br/>samples = 1<br/>value = [0, 1]>, fillcolor="#399de5ff"] ;
121 -> 123 ;
124 [label=<ENEMREDACAO &le; 830.0<br/>gini = 0.053<br/>samples = 37<br/>value = [36, 1]>, fillcolor="#e58139f8"] ;
116 -> 124 ;
125 [label=<gini = 0.0<br/>samples = 30<br/>value = [30, 0]>, fillcolor="#e58139ff"] ;
124 -> 125 ;
126 [label=<SEXO &le; 0.5<br/>gini = 0.245<br/>samples = 7<br/>value = [6, 1]>, fillcolor="#e58139d4"] ;
124 -> 126 ;
127 [label=<gini = 0.0<br/>samples = 5<br/>value = [5, 0]>, fillcolor="#e58139ff"] ;
126 -> 127 ;
128 [label=<ENEMHUMANAS &le; 691.9<br/>gini = 0.5<br/>samples = 2<br/>value = [1, 1]>, fillcolor="#e5813900"] ;
126 -> 128 ;
129 [label=<gini = 0.0<br/>samples = 1<br/>value = [1, 0]>, fillcolor="#e58139ff"] ;
128 -> 129 ;
130 [label=<gini = 0.0<br/>samples = 1<br/>value = [0, 1]>, fillcolor="#399de5ff"] ;
128 -> 130 ;
131 [label=<ENEMMATEMATICA &le; 747.35<br/>gini = 0.5<br/>samples = 4<br/>value = [2, 2]>, fillcolor="#e5813900"] ;
111 -> 131 ;
132 [label=<gini = 0.0<br/>samples = 2<br/>value = [0, 2]>, fillcolor="#399de5ff"] ;
131 -> 132 ;
133 [label=<gini = 0.0<br/>samples = 2<br/>value = [2, 0]>, fillcolor="#e58139ff"] ;
131 -> 133 ;
134 [label=<IDADE &le; 26.5<br/>gini = 0.036<br/>samples = 55<br/>value = [54, 1]>, fillcolor="#e58139fa"] ;
110 -> 134 ;
135 [label=<gini = 0.0<br/>samples = 53<br/>value = [53, 0]>, fillcolor="#e58139ff"] ;
134 -> 135 ;
136 [label=<ENEMHUMANAS &le; 680.35<br/>gini = 0.5<br/>samples = 2<br/>value = [1, 1]>, fillcolor="#e5813900"] ;
134 -> 136 ;
137 [label=<gini = 0.0<br/>samples = 1<br/>value = [0, 1]>, fillcolor="#399de5ff"] ;
136 -> 137 ;
138 [label=<gini = 0.0<br/>samples = 1<br/>value = [1, 0]>, fillcolor="#e58139ff"] ;
136 -> 138 ;
139 [label=<CURSO &le; 40.5<br/>gini = 0.388<br/>samples = 19<br/>value = [14, 5]>, fillcolor="#e58139a4"] ;
109 -> 139 ;
140 [label=<SEXO &le; 0.5<br/>gini = 0.291<br/>samples = 17<br/>value = [14, 3]>, fillcolor="#e58139c8"] ;
139 -> 140 ;
141 [label=<gini = 0.0<br/>samples = 11<br/>value = [11, 0]>, fillcolor="#e58139ff"] ;
140 -> 141 ;
142 [label=<ENEMHUMANAS &le; 641.15<br/>gini = 0.5<br/>samples = 6<br/>value = [3, 3]>, fillcolor="#e5813900"] ;
140 -> 142 ;
143 [label=<gini = 0.0<br/>samples = 3<br/>value = [3, 0]>, fillcolor="#e58139ff"] ;
142 -> 143 ;
144 [label=<gini = 0.0<br/>samples = 3<br/>value = [0, 3]>, fillcolor="#399de5ff"] ;
142 -> 144 ;
145 [label=<gini = 0.0<br/>samples = 2<br/>value = [0, 2]>, fillcolor="#399de5ff"] ;
139 -> 145 ;
146 [label=<IDADE &le; 34.0<br/>gini = 0.455<br/>samples = 20<br/>value = [13, 7]>, fillcolor="#e5813976"] ;
108 -> 146 ;
147 [label=<ENEMMATEMATICA &le; 700.2<br/>gini = 0.486<br/>samples = 12<br/>value = [5, 7]>, fillcolor="#399de549"] ;
146 -> 147 ;
148 [label=<gini = 0.0<br/>samples = 3<br/>value = [3, 0]>, fillcolor="#e58139ff"] ;
147 -> 148 ;
149 [label=<TRANCAMENTOS &le; 1.5<br/>gini = 0.346<br/>samples = 9<br/>value = [2, 7]>, fillcolor="#399de5b6"] ;
147 -> 149 ;
150 [label=<IDADE &le; 32.0<br/>gini = 0.219<br/>samples = 8<br/>value = [1, 7]>, fillcolor="#399de5db"] ;
149 -> 150 ;
151 [label=<gini = 0.0<br/>samples = 6<br/>value = [0, 6]>, fillcolor="#399de5ff"] ;
150 -> 151 ;
152 [label=<ENEMMATEMATICA &le; 784.4<br/>gini = 0.5<br/>samples = 2<br/>value = [1, 1]>, fillcolor="#e5813900"] ;
150 -> 152 ;
153 [label=<gini = 0.0<br/>samples = 1<br/>value = [0, 1]>, fillcolor="#399de5ff"] ;
152 -> 153 ;
154 [label=<gini = 0.0<br/>samples = 1<br/>value = [1, 0]>, fillcolor="#e58139ff"] ;
152 -> 154 ;
155 [label=<gini = 0.0<br/>samples = 1<br/>value = [1, 0]>, fillcolor="#e58139ff"] ;
149 -> 155 ;
156 [label=<gini = 0.0<br/>samples = 8<br/>value = [8, 0]>, fillcolor="#e58139ff"] ;
146 -> 156 ;
157 [label=<CURSO &le; 61.5<br/>gini = 0.435<br/>samples = 128<br/>value = [87, 41]>, fillcolor="#e5813987"] ;
107 -> 157 ;
158 [label=<ENEMLINGUAGEM &le; 573.8<br/>gini = 0.499<br/>samples = 38<br/>value = [18, 20]>, fillcolor="#399de519"] ;
157 -> 158 ;
159 [label=<ENEMREDACAO &le; 610.0<br/>gini = 0.165<br/>samples = 11<br/>value = [1, 10]>, fillcolor="#399de5e6"] ;
158 -> 159 ;
160 [label=<gini = 0.0<br/>samples = 1<br/>value = [1, 0]>, fillcolor="#e58139ff"] ;
159 -> 160 ;
161 [label=<gini = 0.0<br/>samples = 10<br/>value = [0, 10]>, fillcolor="#399de5ff"] ;
159 -> 161 ;
162 [label=<ENEMMATEMATICA &le; 674.75<br/>gini = 0.466<br/>samples = 27<br/>value = [17, 10]>, fillcolor="#e5813969"] ;
158 -> 162 ;
163 [label=<ENEMMATEMATICA &le; 596.7<br/>gini = 0.278<br/>samples = 6<br/>value = [1, 5]>, fillcolor="#399de5cc"] ;
162 -> 163 ;
164 [label=<gini = 0.0<br/>samples = 1<br/>value = [1, 0]>, fillcolor="#e58139ff"] ;
163 -> 164 ;
165 [label=<gini = 0.0<br/>samples = 5<br/>value = [0, 5]>, fillcolor="#399de5ff"] ;
163 -> 165 ;
166 [label=<ENEMNATURAIS &le; 578.75<br/>gini = 0.363<br/>samples = 21<br/>value = [16, 5]>, fillcolor="#e58139af"] ;
162 -> 166 ;
167 [label=<gini = 0.0<br/>samples = 6<br/>value = [6, 0]>, fillcolor="#e58139ff"] ;
166 -> 167 ;
168 [label=<ENEMNATURAIS &le; 622.45<br/>gini = 0.444<br/>samples = 15<br/>value = [10, 5]>, fillcolor="#e581397f"] ;
166 -> 168 ;
169 [label=<ENEMLINGUAGEM &le; 634.05<br/>gini = 0.444<br/>samples = 6<br/>value = [2, 4]>, fillcolor="#399de57f"] ;
168 -> 169 ;
170 [label=<gini = 0.0<br/>samples = 4<br/>value = [0, 4]>, fillcolor="#399de5ff"] ;
169 -> 170 ;
171 [label=<gini = 0.0<br/>samples = 2<br/>value = [2, 0]>, fillcolor="#e58139ff"] ;
169 -> 171 ;
172 [label=<ENEMMATEMATICA &le; 770.35<br/>gini = 0.198<br/>samples = 9<br/>value = [8, 1]>, fillcolor="#e58139df"] ;
168 -> 172 ;
173 [label=<gini = 0.0<br/>samples = 8<br/>value = [8, 0]>, fillcolor="#e58139ff"] ;
172 -> 173 ;
174 [label=<gini = 0.0<br/>samples = 1<br/>value = [0, 1]>, fillcolor="#399de5ff"] ;
172 -> 174 ;
175 [label=<ACAOAFIRMATIVA &le; 4.5<br/>gini = 0.358<br/>samples = 90<br/>value = [69, 21]>, fillcolor="#e58139b1"] ;
157 -> 175 ;
176 [label=<CR &le; 6.48<br/>gini = 0.32<br/>samples = 85<br/>value = [68, 17]>, fillcolor="#e58139bf"] ;
175 -> 176 ;
177 [label=<ENEMLINGUAGEM &le; 526.6<br/>gini = 0.074<br/>samples = 26<br/>value = [25, 1]>, fillcolor="#e58139f5"] ;
176 -> 177 ;
178 [label=<ENEMLINGUAGEM &le; 518.35<br/>gini = 0.245<br/>samples = 7<br/>value = [6, 1]>, fillcolor="#e58139d4"] ;
177 -> 178 ;
179 [label=<gini = 0.0<br/>samples = 6<br/>value = [6, 0]>, fillcolor="#e58139ff"] ;
178 -> 179 ;
180 [label=<gini = 0.0<br/>samples = 1<br/>value = [0, 1]>, fillcolor="#399de5ff"] ;
178 -> 180 ;
181 [label=<gini = 0.0<br/>samples = 19<br/>value = [19, 0]>, fillcolor="#e58139ff"] ;
177 -> 181 ;
182 [label=<COR &le; 2.5<br/>gini = 0.395<br/>samples = 59<br/>value = [43, 16]>, fillcolor="#e58139a0"] ;
176 -> 182 ;
183 [label=<CURSO &le; 211.0<br/>gini = 0.338<br/>samples = 51<br/>value = [40, 11]>, fillcolor="#e58139b9"] ;
182 -> 183 ;
184 [label=<gini = 0.0<br/>samples = 12<br/>value = [12, 0]>, fillcolor="#e58139ff"] ;
183 -> 184 ;
185 [label=<IDADE &le; 38.5<br/>gini = 0.405<br/>samples = 39<br/>value = [28, 11]>, fillcolor="#e581399b"] ;
183 -> 185 ;
186 [label=<CR &le; 6.505<br/>gini = 0.368<br/>samples = 37<br/>value = [28, 9]>, fillcolor="#e58139ad"] ;
185 -> 186 ;
187 [label=<gini = 0.0<br/>samples = 1<br/>value = [0, 1]>, fillcolor="#399de5ff"] ;
186 -> 187 ;
188 [label=<CURSO &le; 221.5<br/>gini = 0.346<br/>samples = 36<br/>value = [28, 8]>, fillcolor="#e58139b6"] ;
186 -> 188 ;
189 [label=<gini = 0.0<br/>samples = 1<br/>value = [0, 1]>, fillcolor="#399de5ff"] ;
188 -> 189 ;
190 [label=<ENEMNATURAIS &le; 665.2<br/>gini = 0.32<br/>samples = 35<br/>value = [28, 7]>, fillcolor="#e58139bf"] ;
188 -> 190 ;
191 [label=<ENEMNATURAIS &le; 597.9<br/>gini = 0.291<br/>samples = 34<br/>value = [28, 6]>, fillcolor="#e58139c8"] ;
190 -> 191 ;
192 [label=<SEXO &le; 0.5<br/>gini = 0.386<br/>samples = 23<br/>value = [17, 6]>, fillcolor="#e58139a5"] ;
191 -> 192 ;
193 [label=<ENEMREDACAO &le; 710.0<br/>gini = 0.496<br/>samples = 11<br/>value = [6, 5]>, fillcolor="#e581392a"] ;
192 -> 193 ;
194 [label=<ESTADOCIVIL &le; 50.0<br/>gini = 0.32<br/>samples = 5<br/>value = [1, 4]>, fillcolor="#399de5bf"] ;
193 -> 194 ;
195 [label=<gini = 0.0<br/>samples = 4<br/>value = [0, 4]>, fillcolor="#399de5ff"] ;
194 -> 195 ;
196 [label=<gini = 0.0<br/>samples = 1<br/>value = [1, 0]>, fillcolor="#e58139ff"] ;
194 -> 196 ;
197 [label=<ENEMREDACAO &le; 790.0<br/>gini = 0.278<br/>samples = 6<br/>value = [5, 1]>, fillcolor="#e58139cc"] ;
193 -> 197 ;
198 [label=<gini = 0.0<br/>samples = 5<br/>value = [5, 0]>, fillcolor="#e58139ff"] ;
197 -> 198 ;
199 [label=<gini = 0.0<br/>samples = 1<br/>value = [0, 1]>, fillcolor="#399de5ff"] ;
197 -> 199 ;
200 [label=<CURSO &le; 232.0<br/>gini = 0.153<br/>samples = 12<br/>value = [11, 1]>, fillcolor="#e58139e8"] ;
192 -> 200 ;
201 [label=<ENEMMATEMATICA &le; 677.7<br/>gini = 0.5<br/>samples = 2<br/>value = [1, 1]>, fillcolor="#e5813900"] ;
200 -> 201 ;
202 [label=<gini = 0.0<br/>samples = 1<br/>value = [1, 0]>, fillcolor="#e58139ff"] ;
201 -> 202 ;
203 [label=<gini = 0.0<br/>samples = 1<br/>value = [0, 1]>, fillcolor="#399de5ff"] ;
201 -> 203 ;
204 [label=<gini = 0.0<br/>samples = 10<br/>value = [10, 0]>, fillcolor="#e58139ff"] ;
200 -> 204 ;
205 [label=<gini = 0.0<br/>samples = 11<br/>value = [11, 0]>, fillcolor="#e58139ff"] ;
191 -> 205 ;
206 [label=<gini = 0.0<br/>samples = 1<br/>value = [0, 1]>, fillcolor="#399de5ff"] ;
190 -> 206 ;
207 [label=<gini = 0.0<br/>samples = 2<br/>value = [0, 2]>, fillcolor="#399de5ff"] ;
185 -> 207 ;
208 [label=<CURSO &le; 262.5<br/>gini = 0.469<br/>samples = 8<br/>value = [3, 5]>, fillcolor="#399de566"] ;
182 -> 208 ;
209 [label=<ENEMMATEMATICA &le; 720.15<br/>gini = 0.278<br/>samples = 6<br/>value = [1, 5]>, fillcolor="#399de5cc"] ;
208 -> 209 ;
210 [label=<gini = 0.0<br/>samples = 4<br/>value = [0, 4]>, fillcolor="#399de5ff"] ;
209 -> 210 ;
211 [label=<CR &le; 6.87<br/>gini = 0.5<br/>samples = 2<br/>value = [1, 1]>, fillcolor="#e5813900"] ;
209 -> 211 ;
212 [label=<gini = 0.0<br/>samples = 1<br/>value = [1, 0]>, fillcolor="#e58139ff"] ;
211 -> 212 ;
213 [label=<gini = 0.0<br/>samples = 1<br/>value = [0, 1]>, fillcolor="#399de5ff"] ;
211 -> 213 ;
214 [label=<gini = 0.0<br/>samples = 2<br/>value = [2, 0]>, fillcolor="#e58139ff"] ;
208 -> 214 ;
215 [label=<CR &le; 6.915<br/>gini = 0.32<br/>samples = 5<br/>value = [1, 4]>, fillcolor="#399de5bf"] ;
175 -> 215 ;
216 [label=<gini = 0.0<br/>samples = 4<br/>value = [0, 4]>, fillcolor="#399de5ff"] ;
215 -> 216 ;
217 [label=<gini = 0.0<br/>samples = 1<br/>value = [1, 0]>, fillcolor="#e58139ff"] ;
215 -> 217 ;
218 [label=<IDADE &le; 25.5<br/>gini = 0.103<br/>samples = 221<br/>value = [209, 12]>, fillcolor="#e58139f0"] ;
106 -> 218 ;
219 [label=<ESTADOCIVIL &le; 50.0<br/>gini = 0.025<br/>samples = 158<br/>value = [156, 2]>, fillcolor="#e58139fc"] ;
218 -> 219 ;
220 [label=<CURSO &le; 492.0<br/>gini = 0.013<br/>samples = 157<br/>value = [156, 1]>, fillcolor="#e58139fd"] ;
219 -> 220 ;
221 [label=<gini = 0.0<br/>samples = 153<br/>value = [153, 0]>, fillcolor="#e58139ff"] ;
220 -> 221 ;
222 [label=<ACAOAFIRMATIVA &le; 1.5<br/>gini = 0.375<br/>samples = 4<br/>value = [3, 1]>, fillcolor="#e58139aa"] ;
220 -> 222 ;
223 [label=<gini = 0.0<br/>samples = 3<br/>value = [3, 0]>, fillcolor="#e58139ff"] ;
222 -> 223 ;
224 [label=<gini = 0.0<br/>samples = 1<br/>value = [0, 1]>, fillcolor="#399de5ff"] ;
222 -> 224 ;
225 [label=<gini = 0.0<br/>samples = 1<br/>value = [0, 1]>, fillcolor="#399de5ff"] ;
219 -> 225 ;
226 [label=<ENEMMATEMATICA &le; 701.75<br/>gini = 0.267<br/>samples = 63<br/>value = [53, 10]>, fillcolor="#e58139cf"] ;
218 -> 226 ;
227 [label=<CURSO &le; 492.0<br/>gini = 0.145<br/>samples = 51<br/>value = [47, 4]>, fillcolor="#e58139e9"] ;
226 -> 227 ;
228 [label=<ENEMMATEMATICA &le; 678.4<br/>gini = 0.081<br/>samples = 47<br/>value = [45, 2]>, fillcolor="#e58139f4"] ;
227 -> 228 ;
229 [label=<ENEMNATURAIS &le; 588.5<br/>gini = 0.045<br/>samples = 43<br/>value = [42, 1]>, fillcolor="#e58139f9"] ;
228 -> 229 ;
230 [label=<gini = 0.0<br/>samples = 35<br/>value = [35, 0]>, fillcolor="#e58139ff"] ;
229 -> 230 ;
231 [label=<ENEMNATURAIS &le; 593.55<br/>gini = 0.219<br/>samples = 8<br/>value = [7, 1]>, fillcolor="#e58139db"] ;
229 -> 231 ;
232 [label=<gini = 0.0<br/>samples = 1<br/>value = [0, 1]>, fillcolor="#399de5ff"] ;
231 -> 232 ;
233 [label=<gini = 0.0<br/>samples = 7<br/>value = [7, 0]>, fillcolor="#e58139ff"] ;
231 -> 233 ;
234 [label=<ENEMREDACAO &le; 660.0<br/>gini = 0.375<br/>samples = 4<br/>value = [3, 1]>, fillcolor="#e58139aa"] ;
228 -> 234 ;
235 [label=<gini = 0.0<br/>samples = 1<br/>value = [0, 1]>, fillcolor="#399de5ff"] ;
234 -> 235 ;
236 [label=<gini = 0.0<br/>samples = 3<br/>value = [3, 0]>, fillcolor="#e58139ff"] ;
234 -> 236 ;
237 [label=<ENEMLINGUAGEM &le; 586.15<br/>gini = 0.5<br/>samples = 4<br/>value = [2, 2]>, fillcolor="#e5813900"] ;
227 -> 237 ;
238 [label=<gini = 0.0<br/>samples = 2<br/>value = [2, 0]>, fillcolor="#e58139ff"] ;
237 -> 238 ;
239 [label=<gini = 0.0<br/>samples = 2<br/>value = [0, 2]>, fillcolor="#399de5ff"] ;
237 -> 239 ;
240 [label=<ENEMNATURAIS &le; 601.0<br/>gini = 0.5<br/>samples = 12<br/>value = [6, 6]>, fillcolor="#e5813900"] ;
226 -> 240 ;
241 [label=<COR &le; 1.0<br/>gini = 0.375<br/>samples = 8<br/>value = [2, 6]>, fillcolor="#399de5aa"] ;
240 -> 241 ;
242 [label=<gini = 0.0<br/>samples = 2<br/>value = [2, 0]>, fillcolor="#e58139ff"] ;
241 -> 242 ;
243 [label=<gini = 0.0<br/>samples = 6<br/>value = [0, 6]>, fillcolor="#399de5ff"] ;
241 -> 243 ;
244 [label=<gini = 0.0<br/>samples = 4<br/>value = [4, 0]>, fillcolor="#e58139ff"] ;
240 -> 244 ;
245 [label=<CR &le; 6.495<br/>gini = 0.489<br/>samples = 117<br/>value = [67, 50]>, fillcolor="#e5813941"] ;
105 -> 245 ;
246 [label=<ENEMMATEMATICA &le; 492.35<br/>gini = 0.388<br/>samples = 38<br/>value = [28, 10]>, fillcolor="#e58139a4"] ;
245 -> 246 ;
247 [label=<gini = 0.0<br/>samples = 2<br/>value = [0, 2]>, fillcolor="#399de5ff"] ;
246 -> 247 ;
248 [label=<CURSO &le; 262.5<br/>gini = 0.346<br/>samples = 36<br/>value = [28, 8]>, fillcolor="#e58139b6"] ;
246 -> 248 ;
249 [label=<ENEMNATURAIS &le; 592.8<br/>gini = 0.426<br/>samples = 26<br/>value = [18, 8]>, fillcolor="#e581398e"] ;
248 -> 249 ;
250 [label=<ENEMNATURAIS &le; 545.75<br/>gini = 0.488<br/>samples = 19<br/>value = [11, 8]>, fillcolor="#e5813946"] ;
249 -> 250 ;
251 [label=<ENEMNATURAIS &le; 416.55<br/>gini = 0.219<br/>samples = 8<br/>value = [7, 1]>, fillcolor="#e58139db"] ;
250 -> 251 ;
252 [label=<gini = 0.0<br/>samples = 1<br/>value = [0, 1]>, fillcolor="#399de5ff"] ;
251 -> 252 ;
253 [label=<gini = 0.0<br/>samples = 7<br/>value = [7, 0]>, fillcolor="#e58139ff"] ;
251 -> 253 ;
254 [label=<CR &le; 6.41<br/>gini = 0.463<br/>samples = 11<br/>value = [4, 7]>, fillcolor="#399de56d"] ;
250 -> 254 ;
255 [label=<IDADE &le; 23.5<br/>gini = 0.219<br/>samples = 8<br/>value = [1, 7]>, fillcolor="#399de5db"] ;
254 -> 255 ;
256 [label=<gini = 0.0<br/>samples = 1<br/>value = [1, 0]>, fillcolor="#e58139ff"] ;
255 -> 256 ;
257 [label=<gini = 0.0<br/>samples = 7<br/>value = [0, 7]>, fillcolor="#399de5ff"] ;
255 -> 257 ;
258 [label=<gini = 0.0<br/>samples = 3<br/>value = [3, 0]>, fillcolor="#e58139ff"] ;
254 -> 258 ;
259 [label=<gini = 0.0<br/>samples = 7<br/>value = [7, 0]>, fillcolor="#e58139ff"] ;
249 -> 259 ;
260 [label=<gini = 0.0<br/>samples = 10<br/>value = [10, 0]>, fillcolor="#e58139ff"] ;
248 -> 260 ;
261 [label=<CR &le; 6.91<br/>gini = 0.5<br/>samples = 79<br/>value = [39, 40]>, fillcolor="#399de506"] ;
245 -> 261 ;
262 [label=<ENEMNATURAIS &le; 576.5<br/>gini = 0.497<br/>samples = 74<br/>value = [34, 40]>, fillcolor="#399de526"] ;
261 -> 262 ;
263 [label=<ENEMLINGUAGEM &le; 662.45<br/>gini = 0.495<br/>samples = 51<br/>value = [28, 23]>, fillcolor="#e581392e"] ;
262 -> 263 ;
264 [label=<SEMESTREINGRESSO &le; 1.5<br/>gini = 0.486<br/>samples = 48<br/>value = [28, 20]>, fillcolor="#e5813949"] ;
263 -> 264 ;
265 [label=<ENEMMATEMATICA &le; 588.5<br/>gini = 0.498<br/>samples = 30<br/>value = [14, 16]>, fillcolor="#399de520"] ;
264 -> 265 ;
266 [label=<gini = 0.0<br/>samples = 6<br/>value = [0, 6]>, fillcolor="#399de5ff"] ;
265 -> 266 ;
267 [label=<ENEMREDACAO &le; 530.0<br/>gini = 0.486<br/>samples = 24<br/>value = [14, 10]>, fillcolor="#e5813949"] ;
265 -> 267 ;
268 [label=<gini = 0.0<br/>samples = 3<br/>value = [0, 3]>, fillcolor="#399de5ff"] ;
267 -> 268 ;
269 [label=<ENEMNATURAIS &le; 534.3<br/>gini = 0.444<br/>samples = 21<br/>value = [14, 7]>, fillcolor="#e581397f"] ;
267 -> 269 ;
270 [label=<gini = 0.0<br/>samples = 6<br/>value = [6, 0]>, fillcolor="#e58139ff"] ;
269 -> 270 ;
271 [label=<CURSO &le; 77.5<br/>gini = 0.498<br/>samples = 15<br/>value = [8, 7]>, fillcolor="#e5813920"] ;
269 -> 271 ;
272 [label=<CR &le; 6.675<br/>gini = 0.444<br/>samples = 9<br/>value = [3, 6]>, fillcolor="#399de57f"] ;
271 -> 272 ;
273 [label=<CURSO &le; 43.5<br/>gini = 0.48<br/>samples = 5<br/>value = [3, 2]>, fillcolor="#e5813955"] ;
272 -> 273 ;
274 [label=<gini = 0.0<br/>samples = 2<br/>value = [2, 0]>, fillcolor="#e58139ff"] ;
273 -> 274 ;
275 [label=<ENEMHUMANAS &le; 639.75<br/>gini = 0.444<br/>samples = 3<br/>value = [1, 2]>, fillcolor="#399de57f"] ;
273 -> 275 ;
276 [label=<gini = 0.0<br/>samples = 2<br/>value = [0, 2]>, fillcolor="#399de5ff"] ;
275 -> 276 ;
277 [label=<gini = 0.0<br/>samples = 1<br/>value = [1, 0]>, fillcolor="#e58139ff"] ;
275 -> 277 ;
278 [label=<gini = 0.0<br/>samples = 4<br/>value = [0, 4]>, fillcolor="#399de5ff"] ;
272 -> 278 ;
279 [label=<ESTADOCIVIL &le; 50.5<br/>gini = 0.278<br/>samples = 6<br/>value = [5, 1]>, fillcolor="#e58139cc"] ;
271 -> 279 ;
280 [label=<gini = 0.0<br/>samples = 5<br/>value = [5, 0]>, fillcolor="#e58139ff"] ;
279 -> 280 ;
281 [label=<gini = 0.0<br/>samples = 1<br/>value = [0, 1]>, fillcolor="#399de5ff"] ;
279 -> 281 ;
282 [label=<ENEMREDACAO &le; 640.0<br/>gini = 0.346<br/>samples = 18<br/>value = [14, 4]>, fillcolor="#e58139b6"] ;
264 -> 282 ;
283 [label=<ESTADOCIVIL &le; 0.5<br/>gini = 0.142<br/>samples = 13<br/>value = [12, 1]>, fillcolor="#e58139ea"] ;
282 -> 283 ;
284 [label=<gini = 0.0<br/>samples = 12<br/>value = [12, 0]>, fillcolor="#e58139ff"] ;
283 -> 284 ;
285 [label=<gini = 0.0<br/>samples = 1<br/>value = [0, 1]>, fillcolor="#399de5ff"] ;
283 -> 285 ;
286 [label=<IDADE &le; 29.0<br/>gini = 0.48<br/>samples = 5<br/>value = [2, 3]>, fillcolor="#399de555"] ;
282 -> 286 ;
287 [label=<gini = 0.0<br/>samples = 3<br/>value = [0, 3]>, fillcolor="#399de5ff"] ;
286 -> 287 ;
288 [label=<gini = 0.0<br/>samples = 2<br/>value = [2, 0]>, fillcolor="#e58139ff"] ;
286 -> 288 ;
289 [label=<gini = 0.0<br/>samples = 3<br/>value = [0, 3]>, fillcolor="#399de5ff"] ;
263 -> 289 ;
290 [label=<ENEMLINGUAGEM &le; 646.1<br/>gini = 0.386<br/>samples = 23<br/>value = [6, 17]>, fillcolor="#399de5a5"] ;
262 -> 290 ;
291 [label=<ENEMMATEMATICA &le; 686.85<br/>gini = 0.219<br/>samples = 16<br/>value = [2, 14]>, fillcolor="#399de5db"] ;
290 -> 291 ;
292 [label=<CURSO &le; 162.0<br/>gini = 0.408<br/>samples = 7<br/>value = [2, 5]>, fillcolor="#399de599"] ;
291 -> 292 ;
293 [label=<gini = 0.0<br/>samples = 2<br/>value = [2, 0]>, fillcolor="#e58139ff"] ;
292 -> 293 ;
294 [label=<gini = 0.0<br/>samples = 5<br/>value = [0, 5]>, fillcolor="#399de5ff"] ;
292 -> 294 ;
295 [label=<gini = 0.0<br/>samples = 9<br/>value = [0, 9]>, fillcolor="#399de5ff"] ;
291 -> 295 ;
296 [label=<ENEMREDACAO &le; 820.0<br/>gini = 0.49<br/>samples = 7<br/>value = [4, 3]>, fillcolor="#e5813940"] ;
290 -> 296 ;
297 [label=<ENEMNATURAIS &le; 681.85<br/>gini = 0.32<br/>samples = 5<br/>value = [4, 1]>, fillcolor="#e58139bf"] ;
296 -> 297 ;
298 [label=<gini = 0.0<br/>samples = 4<br/>value = [4, 0]>, fillcolor="#e58139ff"] ;
297 -> 298 ;
299 [label=<gini = 0.0<br/>samples = 1<br/>value = [0, 1]>, fillcolor="#399de5ff"] ;
297 -> 299 ;
300 [label=<gini = 0.0<br/>samples = 2<br/>value = [0, 2]>, fillcolor="#399de5ff"] ;
296 -> 300 ;
301 [label=<gini = 0.0<br/>samples = 5<br/>value = [5, 0]>, fillcolor="#e58139ff"] ;
261 -> 301 ;
302 [label=<ANOINGRESSO &le; 2013.5<br/>gini = 0.45<br/>samples = 3118<br/>value = [1066, 2052]>, fillcolor="#399de57b"] ;
0 -> 302 [labeldistance=2.5, labelangle=-45, headlabel="False"] ;
303 [label=<CR &le; 7.995<br/>gini = 0.365<br/>samples = 2348<br/>value = [565, 1783]>, fillcolor="#399de5ae"] ;
302 -> 303 ;
304 [label=<ACAOAFIRMATIVA &le; 0.5<br/>gini = 0.455<br/>samples = 830<br/>value = [290, 540]>, fillcolor="#399de576"] ;
303 -> 304 ;
305 [label=<ENEMLINGUAGEM &le; 662.8<br/>gini = 0.492<br/>samples = 444<br/>value = [194, 250]>, fillcolor="#399de539"] ;
304 -> 305 ;
306 [label=<ANOINGRESSO &le; 2012.5<br/>gini = 0.484<br/>samples = 411<br/>value = [169, 242]>, fillcolor="#399de54d"] ;
305 -> 306 ;
307 [label=<gini = 0.0<br/>samples = 9<br/>value = [9, 0]>, fillcolor="#e58139ff"] ;
306 -> 307 ;
308 [label=<ENEMMATEMATICA &le; 632.25<br/>gini = 0.479<br/>samples = 402<br/>value = [160, 242]>, fillcolor="#399de556"] ;
306 -> 308 ;
309 [label=<ENEMLINGUAGEM &le; 602.45<br/>gini = 0.493<br/>samples = 77<br/>value = [43, 34]>, fillcolor="#e5813935"] ;
308 -> 309 ;
310 [label=<ENEMLINGUAGEM &le; 594.8<br/>gini = 0.499<br/>samples = 54<br/>value = [26, 28]>, fillcolor="#399de512"] ;
309 -> 310 ;
311 [label=<ENEMLINGUAGEM &le; 493.15<br/>gini = 0.494<br/>samples = 47<br/>value = [26, 21]>, fillcolor="#e5813931"] ;
310 -> 311 ;
312 [label=<CR &le; 7.6<br/>gini = 0.397<br/>samples = 11<br/>value = [3, 8]>, fillcolor="#399de59f"] ;
311 -> 312 ;
313 [label=<ENEMNATURAIS &le; 510.05<br/>gini = 0.5<br/>samples = 6<br/>value = [3, 3]>, fillcolor="#e5813900"] ;
312 -> 313 ;
314 [label=<CURSO &le; 394.0<br/>gini = 0.375<br/>samples = 4<br/>value = [3, 1]>, fillcolor="#e58139aa"] ;
313 -> 314 ;
315 [label=<gini = 0.0<br/>samples = 3<br/>value = [3, 0]>, fillcolor="#e58139ff"] ;
314 -> 315 ;
316 [label=<gini = 0.0<br/>samples = 1<br/>value = [0, 1]>, fillcolor="#399de5ff"] ;
314 -> 316 ;
317 [label=<gini = 0.0<br/>samples = 2<br/>value = [0, 2]>, fillcolor="#399de5ff"] ;
313 -> 317 ;
318 [label=<gini = 0.0<br/>samples = 5<br/>value = [0, 5]>, fillcolor="#399de5ff"] ;
312 -> 318 ;
319 [label=<ENEMHUMANAS &le; 573.45<br/>gini = 0.461<br/>samples = 36<br/>value = [23, 13]>, fillcolor="#e581396f"] ;
311 -> 319 ;
320 [label=<gini = 0.0<br/>samples = 7<br/>value = [7, 0]>, fillcolor="#e58139ff"] ;
319 -> 320 ;
321 [label=<ENEMHUMANAS &le; 598.85<br/>gini = 0.495<br/>samples = 29<br/>value = [16, 13]>, fillcolor="#e5813930"] ;
319 -> 321 ;
322 [label=<CURSO &le; 37.5<br/>gini = 0.278<br/>samples = 6<br/>value = [1, 5]>, fillcolor="#399de5cc"] ;
321 -> 322 ;
323 [label=<gini = 0.0<br/>samples = 1<br/>value = [1, 0]>, fillcolor="#e58139ff"] ;
322 -> 323 ;
324 [label=<gini = 0.0<br/>samples = 5<br/>value = [0, 5]>, fillcolor="#399de5ff"] ;
322 -> 324 ;
325 [label=<CURSO &le; 197.5<br/>gini = 0.454<br/>samples = 23<br/>value = [15, 8]>, fillcolor="#e5813977"] ;
321 -> 325 ;
326 [label=<CR &le; 7.79<br/>gini = 0.498<br/>samples = 17<br/>value = [9, 8]>, fillcolor="#e581391c"] ;
325 -> 326 ;
327 [label=<ENEMLINGUAGEM &le; 558.5<br/>gini = 0.397<br/>samples = 11<br/>value = [8, 3]>, fillcolor="#e581399f"] ;
326 -> 327 ;
328 [label=<ENEMHUMANAS &le; 693.15<br/>gini = 0.375<br/>samples = 4<br/>value = [1, 3]>, fillcolor="#399de5aa"] ;
327 -> 328 ;
329 [label=<gini = 0.0<br/>samples = 3<br/>value = [0, 3]>, fillcolor="#399de5ff"] ;
328 -> 329 ;
330 [label=<gini = 0.0<br/>samples = 1<br/>value = [1, 0]>, fillcolor="#e58139ff"] ;
328 -> 330 ;
331 [label=<gini = 0.0<br/>samples = 7<br/>value = [7, 0]>, fillcolor="#e58139ff"] ;
327 -> 331 ;
332 [label=<ENEMMATEMATICA &le; 619.85<br/>gini = 0.278<br/>samples = 6<br/>value = [1, 5]>, fillcolor="#399de5cc"] ;
326 -> 332 ;
333 [label=<gini = 0.0<br/>samples = 5<br/>value = [0, 5]>, fillcolor="#399de5ff"] ;
332 -> 333 ;
334 [label=<gini = 0.0<br/>samples = 1<br/>value = [1, 0]>, fillcolor="#e58139ff"] ;
332 -> 334 ;
335 [label=<gini = 0.0<br/>samples = 6<br/>value = [6, 0]>, fillcolor="#e58139ff"] ;
325 -> 335 ;
336 [label=<gini = 0.0<br/>samples = 7<br/>value = [0, 7]>, fillcolor="#399de5ff"] ;
310 -> 336 ;
337 [label=<ENEMREDACAO &le; 870.0<br/>gini = 0.386<br/>samples = 23<br/>value = [17, 6]>, fillcolor="#e58139a5"] ;
309 -> 337 ;
338 [label=<CURSO &le; 392.0<br/>gini = 0.208<br/>samples = 17<br/>value = [15, 2]>, fillcolor="#e58139dd"] ;
337 -> 338 ;
339 [label=<ENEMHUMANAS &le; 622.85<br/>gini = 0.117<br/>samples = 16<br/>value = [15, 1]>, fillcolor="#e58139ee"] ;
338 -> 339 ;
340 [label=<CURSO &le; 54.0<br/>gini = 0.5<br/>samples = 2<br/>value = [1, 1]>, fillcolor="#e5813900"] ;
339 -> 340 ;
341 [label=<gini = 0.0<br/>samples = 1<br/>value = [1, 0]>, fillcolor="#e58139ff"] ;
340 -> 341 ;
342 [label=<gini = 0.0<br/>samples = 1<br/>value = [0, 1]>, fillcolor="#399de5ff"] ;
340 -> 342 ;
343 [label=<gini = 0.0<br/>samples = 14<br/>value = [14, 0]>, fillcolor="#e58139ff"] ;
339 -> 343 ;
344 [label=<gini = 0.0<br/>samples = 1<br/>value = [0, 1]>, fillcolor="#399de5ff"] ;
338 -> 344 ;
345 [label=<CR &le; 7.54<br/>gini = 0.444<br/>samples = 6<br/>value = [2, 4]>, fillcolor="#399de57f"] ;
337 -> 345 ;
346 [label=<gini = 0.0<br/>samples = 3<br/>value = [0, 3]>, fillcolor="#399de5ff"] ;
345 -> 346 ;
347 [label=<CURSO &le; 393.0<br/>gini = 0.444<br/>samples = 3<br/>value = [2, 1]>, fillcolor="#e581397f"] ;
345 -> 347 ;
348 [label=<gini = 0.0<br/>samples = 2<br/>value = [2, 0]>, fillcolor="#e58139ff"] ;
347 -> 348 ;
349 [label=<gini = 0.0<br/>samples = 1<br/>value = [0, 1]>, fillcolor="#399de5ff"] ;
347 -> 349 ;
350 [label=<CR &le; 7.79<br/>gini = 0.461<br/>samples = 325<br/>value = [117, 208]>, fillcolor="#399de570"] ;
308 -> 350 ;
351 [label=<CURSO &le; 284.0<br/>gini = 0.485<br/>samples = 245<br/>value = [101, 144]>, fillcolor="#399de54c"] ;
350 -> 351 ;
352 [label=<CR &le; 7.705<br/>gini = 0.469<br/>samples = 216<br/>value = [81, 135]>, fillcolor="#399de566"] ;
351 -> 352 ;
353 [label=<ENEMREDACAO &le; 630.0<br/>gini = 0.459<br/>samples = 210<br/>value = [75, 135]>, fillcolor="#399de571"] ;
352 -> 353 ;
354 [label=<CURSO &le; 13.5<br/>gini = 0.495<br/>samples = 40<br/>value = [22, 18]>, fillcolor="#e581392e"] ;
353 -> 354 ;
355 [label=<gini = 0.0<br/>samples = 6<br/>value = [6, 0]>, fillcolor="#e58139ff"] ;
354 -> 355 ;
356 [label=<ENEMLINGUAGEM &le; 602.3<br/>gini = 0.498<br/>samples = 34<br/>value = [16, 18]>, fillcolor="#399de51c"] ;
354 -> 356 ;
357 [label=<ENEMLINGUAGEM &le; 572.3<br/>gini = 0.415<br/>samples = 17<br/>value = [12, 5]>, fillcolor="#e5813995"] ;
356 -> 357 ;
358 [label=<CR &le; 7.52<br/>gini = 0.5<br/>samples = 10<br/>value = [5, 5]>, fillcolor="#e5813900"] ;
357 -> 358 ;
359 [label=<CURSO &le; 58.0<br/>gini = 0.469<br/>samples = 8<br/>value = [3, 5]>, fillcolor="#399de566"] ;
358 -> 359 ;
360 [label=<gini = 0.0<br/>samples = 2<br/>value = [2, 0]>, fillcolor="#e58139ff"] ;
359 -> 360 ;
361 [label=<IDADE &le; 25.5<br/>gini = 0.278<br/>samples = 6<br/>value = [1, 5]>, fillcolor="#399de5cc"] ;
359 -> 361 ;
362 [label=<gini = 0.0<br/>samples = 5<br/>value = [0, 5]>, fillcolor="#399de5ff"] ;
361 -> 362 ;
363 [label=<gini = 0.0<br/>samples = 1<br/>value = [1, 0]>, fillcolor="#e58139ff"] ;
361 -> 363 ;
364 [label=<gini = 0.0<br/>samples = 2<br/>value = [2, 0]>, fillcolor="#e58139ff"] ;
358 -> 364 ;
365 [label=<gini = 0.0<br/>samples = 7<br/>value = [7, 0]>, fillcolor="#e58139ff"] ;
357 -> 365 ;
366 [label=<SEMESTREINGRESSO &le; 1.5<br/>gini = 0.36<br/>samples = 17<br/>value = [4, 13]>, fillcolor="#399de5b1"] ;
356 -> 366 ;
367 [label=<gini = 0.0<br/>samples = 8<br/>value = [0, 8]>, fillcolor="#399de5ff"] ;
366 -> 367 ;
368 [label=<CURSO &le; 29.5<br/>gini = 0.494<br/>samples = 9<br/>value = [4, 5]>, fillcolor="#399de533"] ;
366 -> 368 ;
369 [label=<gini = 0.0<br/>samples = 4<br/>value = [0, 4]>, fillcolor="#399de5ff"] ;
368 -> 369 ;
370 [label=<ENEMHUMANAS &le; 653.9<br/>gini = 0.32<br/>samples = 5<br/>value = [4, 1]>, fillcolor="#e58139bf"] ;
368 -> 370 ;
371 [label=<CURSO &le; 81.0<br/>gini = 0.5<br/>samples = 2<br/>value = [1, 1]>, fillcolor="#e5813900"] ;
370 -> 371 ;
372 [label=<gini = 0.0<br/>samples = 1<br/>value = [0, 1]>, fillcolor="#399de5ff"] ;
371 -> 372 ;
373 [label=<gini = 0.0<br/>samples = 1<br/>value = [1, 0]>, fillcolor="#e58139ff"] ;
371 -> 373 ;
374 [label=<gini = 0.0<br/>samples = 3<br/>value = [3, 0]>, fillcolor="#e58139ff"] ;
370 -> 374 ;
375 [label=<CR &le; 7.395<br/>gini = 0.429<br/>samples = 170<br/>value = [53, 117]>, fillcolor="#399de58b"] ;
353 -> 375 ;
376 [label=<CURSO &le; 45.5<br/>gini = 0.489<br/>samples = 73<br/>value = [31, 42]>, fillcolor="#399de543"] ;
375 -> 376 ;
377 [label=<ENEMHUMANAS &le; 708.6<br/>gini = 0.46<br/>samples = 39<br/>value = [25, 14]>, fillcolor="#e5813970"] ;
376 -> 377 ;
378 [label=<SEXO &le; 0.5<br/>gini = 0.383<br/>samples = 31<br/>value = [23, 8]>, fillcolor="#e58139a6"] ;
377 -> 378 ;
379 [label=<IDADE &le; 22.0<br/>gini = 0.208<br/>samples = 17<br/>value = [15, 2]>, fillcolor="#e58139dd"] ;
378 -> 379 ;
380 [label=<gini = 0.0<br/>samples = 1<br/>value = [0, 1]>, fillcolor="#399de5ff"] ;
379 -> 380 ;
381 [label=<ENEMNATURAIS &le; 566.55<br/>gini = 0.117<br/>samples = 16<br/>value = [15, 1]>, fillcolor="#e58139ee"] ;
379 -> 381 ;
382 [label=<ENEMREDACAO &le; 780.0<br/>gini = 0.5<br/>samples = 2<br/>value = [1, 1]>, fillcolor="#e5813900"] ;
381 -> 382 ;
383 [label=<gini = 0.0<br/>samples = 1<br/>value = [0, 1]>, fillcolor="#399de5ff"] ;
382 -> 383 ;
384 [label=<gini = 0.0<br/>samples = 1<br/>value = [1, 0]>, fillcolor="#e58139ff"] ;
382 -> 384 ;
385 [label=<gini = 0.0<br/>samples = 14<br/>value = [14, 0]>, fillcolor="#e58139ff"] ;
381 -> 385 ;
386 [label=<ENEMMATEMATICA &le; 736.55<br/>gini = 0.49<br/>samples = 14<br/>value = [8, 6]>, fillcolor="#e5813940"] ;
378 -> 386 ;
387 [label=<ENEMLINGUAGEM &le; 545.3<br/>gini = 0.278<br/>samples = 6<br/>value = [5, 1]>, fillcolor="#e58139cc"] ;
386 -> 387 ;
388 [label=<gini = 0.0<br/>samples = 1<br/>value = [0, 1]>, fillcolor="#399de5ff"] ;
387 -> 388 ;
389 [label=<gini = 0.0<br/>samples = 5<br/>value = [5, 0]>, fillcolor="#e58139ff"] ;
387 -> 389 ;
390 [label=<ENEMHUMANAS &le; 702.9<br/>gini = 0.469<br/>samples = 8<br/>value = [3, 5]>, fillcolor="#399de566"] ;
386 -> 390 ;
391 [label=<ENEMMATEMATICA &le; 838.4<br/>gini = 0.278<br/>samples = 6<br/>value = [1, 5]>, fillcolor="#399de5cc"] ;
390 -> 391 ;
392 [label=<gini = 0.0<br/>samples = 5<br/>value = [0, 5]>, fillcolor="#399de5ff"] ;
391 -> 392 ;
393 [label=<gini = 0.0<br/>samples = 1<br/>value = [1, 0]>, fillcolor="#e58139ff"] ;
391 -> 393 ;
394 [label=<gini = 0.0<br/>samples = 2<br/>value = [2, 0]>, fillcolor="#e58139ff"] ;
390 -> 394 ;
395 [label=<ENEMNATURAIS &le; 700.0<br/>gini = 0.375<br/>samples = 8<br/>value = [2, 6]>, fillcolor="#399de5aa"] ;
377 -> 395 ;
396 [label=<gini = 0.0<br/>samples = 6<br/>value = [0, 6]>, fillcolor="#399de5ff"] ;
395 -> 396 ;
397 [label=<gini = 0.0<br/>samples = 2<br/>value = [2, 0]>, fillcolor="#e58139ff"] ;
395 -> 397 ;
398 [label=<ENEMLINGUAGEM &le; 572.85<br/>gini = 0.291<br/>samples = 34<br/>value = [6, 28]>, fillcolor="#399de5c8"] ;
376 -> 398 ;
399 [label=<IDADE &le; 23.5<br/>gini = 0.49<br/>samples = 7<br/>value = [3, 4]>, fillcolor="#399de540"] ;
398 -> 399 ;
400 [label=<gini = 0.0<br/>samples = 3<br/>value = [3, 0]>, fillcolor="#e58139ff"] ;
399 -> 400 ;
401 [label=<gini = 0.0<br/>samples = 4<br/>value = [0, 4]>, fillcolor="#399de5ff"] ;
399 -> 401 ;
402 [label=<CURSO &le; 81.0<br/>gini = 0.198<br/>samples = 27<br/>value = [3, 24]>, fillcolor="#399de5df"] ;
398 -> 402 ;
403 [label=<ENEMLINGUAGEM &le; 611.0<br/>gini = 0.305<br/>samples = 16<br/>value = [3, 13]>, fillcolor="#399de5c4"] ;
402 -> 403 ;
404 [label=<ENEMLINGUAGEM &le; 595.8<br/>gini = 0.48<br/>samples = 5<br/>value = [2, 3]>, fillcolor="#399de555"] ;
403 -> 404 ;
405 [label=<gini = 0.0<br/>samples = 3<br/>value = [0, 3]>, fillcolor="#399de5ff"] ;
404 -> 405 ;
406 [label=<gini = 0.0<br/>samples = 2<br/>value = [2, 0]>, fillcolor="#e58139ff"] ;
404 -> 406 ;
407 [label=<ENEMNATURAIS &le; 645.4<br/>gini = 0.165<br/>samples = 11<br/>value = [1, 10]>, fillcolor="#399de5e6"] ;
403 -> 407 ;
408 [label=<gini = 0.0<br/>samples = 8<br/>value = [0, 8]>, fillcolor="#399de5ff"] ;
407 -> 408 ;
409 [label=<SEXO &le; 0.5<br/>gini = 0.444<br/>samples = 3<br/>value = [1, 2]>, fillcolor="#399de57f"] ;
407 -> 409 ;
410 [label=<gini = 0.0<br/>samples = 1<br/>value = [1, 0]>, fillcolor="#e58139ff"] ;
409 -> 410 ;
411 [label=<gini = 0.0<br/>samples = 2<br/>value = [0, 2]>, fillcolor="#399de5ff"] ;
409 -> 411 ;
412 [label=<gini = 0.0<br/>samples = 11<br/>value = [0, 11]>, fillcolor="#399de5ff"] ;
402 -> 412 ;
413 [label=<ENEMLINGUAGEM &le; 551.8<br/>gini = 0.351<br/>samples = 97<br/>value = [22, 75]>, fillcolor="#399de5b4"] ;
375 -> 413 ;
414 [label=<ENEMNATURAIS &le; 596.85<br/>gini = 0.496<br/>samples = 11<br/>value = [6, 5]>, fillcolor="#e581392a"] ;
413 -> 414 ;
415 [label=<ENEMMATEMATICA &le; 661.1<br/>gini = 0.245<br/>samples = 7<br/>value = [6, 1]>, fillcolor="#e58139d4"] ;
414 -> 415 ;
416 [label=<gini = 0.0<br/>samples = 1<br/>value = [0, 1]>, fillcolor="#399de5ff"] ;
415 -> 416 ;
417 [label=<gini = 0.0<br/>samples = 6<br/>value = [6, 0]>, fillcolor="#e58139ff"] ;
415 -> 417 ;
418 [label=<gini = 0.0<br/>samples = 4<br/>value = [0, 4]>, fillcolor="#399de5ff"] ;
414 -> 418 ;
419 [label=<ENEMLINGUAGEM &le; 609.85<br/>gini = 0.303<br/>samples = 86<br/>value = [16, 70]>, fillcolor="#399de5c5"] ;
413 -> 419 ;
420 [label=<CURSO &le; 54.0<br/>gini = 0.1<br/>samples = 38<br/>value = [2, 36]>, fillcolor="#399de5f1"] ;
419 -> 420 ;
421 [label=<gini = 0.0<br/>samples = 27<br/>value = [0, 27]>, fillcolor="#399de5ff"] ;
420 -> 421 ;
422 [label=<ENEMREDACAO &le; 670.0<br/>gini = 0.298<br/>samples = 11<br/>value = [2, 9]>, fillcolor="#399de5c6"] ;
420 -> 422 ;
423 [label=<gini = 0.0<br/>samples = 1<br/>value = [1, 0]>, fillcolor="#e58139ff"] ;
422 -> 423 ;
424 [label=<CURSO &le; 57.0<br/>gini = 0.18<br/>samples = 10<br/>value = [1, 9]>, fillcolor="#399de5e3"] ;
422 -> 424 ;
425 [label=<gini = 0.0<br/>samples = 1<br/>value = [1, 0]>, fillcolor="#e58139ff"] ;
424 -> 425 ;
426 [label=<gini = 0.0<br/>samples = 9<br/>value = [0, 9]>, fillcolor="#399de5ff"] ;
424 -> 426 ;
427 [label=<ENEMNATURAIS &le; 699.15<br/>gini = 0.413<br/>samples = 48<br/>value = [14, 34]>, fillcolor="#399de596"] ;
419 -> 427 ;
428 [label=<COR &le; 1.5<br/>gini = 0.386<br/>samples = 46<br/>value = [12, 34]>, fillcolor="#399de5a5"] ;
427 -> 428 ;
429 [label=<IDADE &le; 27.5<br/>gini = 0.438<br/>samples = 37<br/>value = [12, 25]>, fillcolor="#399de585"] ;
428 -> 429 ;
430 [label=<ENEMHUMANAS &le; 693.4<br/>gini = 0.408<br/>samples = 35<br/>value = [10, 25]>, fillcolor="#399de599"] ;
429 -> 430 ;
431 [label=<SEMESTREINGRESSO &le; 1.5<br/>gini = 0.476<br/>samples = 23<br/>value = [9, 14]>, fillcolor="#399de55b"] ;
430 -> 431 ;
432 [label=<ENEMHUMANAS &le; 625.1<br/>gini = 0.497<br/>samples = 13<br/>value = [7, 6]>, fillcolor="#e5813924"] ;
431 -> 432 ;
433 [label=<gini = 0.0<br/>samples = 2<br/>value = [0, 2]>, fillcolor="#399de5ff"] ;
432 -> 433 ;
434 [label=<ENEMHUMANAS &le; 646.85<br/>gini = 0.463<br/>samples = 11<br/>value = [7, 4]>, fillcolor="#e581396d"] ;
432 -> 434 ;
435 [label=<gini = 0.0<br/>samples = 3<br/>value = [3, 0]>, fillcolor="#e58139ff"] ;
434 -> 435 ;
436 [label=<ENEMHUMANAS &le; 667.5<br/>gini = 0.5<br/>samples = 8<br/>value = [4, 4]>, fillcolor="#e5813900"] ;
434 -> 436 ;
437 [label=<gini = 0.0<br/>samples = 3<br/>value = [0, 3]>, fillcolor="#399de5ff"] ;
436 -> 437 ;
438 [label=<ENEMLINGUAGEM &le; 654.0<br/>gini = 0.32<br/>samples = 5<br/>value = [4, 1]>, fillcolor="#e58139bf"] ;
436 -> 438 ;
439 [label=<gini = 0.0<br/>samples = 4<br/>value = [4, 0]>, fillcolor="#e58139ff"] ;
438 -> 439 ;
440 [label=<gini = 0.0<br/>samples = 1<br/>value = [0, 1]>, fillcolor="#399de5ff"] ;
438 -> 440 ;
441 [label=<ENEMHUMANAS &le; 660.8<br/>gini = 0.32<br/>samples = 10<br/>value = [2, 8]>, fillcolor="#399de5bf"] ;
431 -> 441 ;
442 [label=<gini = 0.0<br/>samples = 1<br/>value = [1, 0]>, fillcolor="#e58139ff"] ;
441 -> 442 ;
443 [label=<ENEMHUMANAS &le; 684.15<br/>gini = 0.198<br/>samples = 9<br/>value = [1, 8]>, fillcolor="#399de5df"] ;
441 -> 443 ;
444 [label=<gini = 0.0<br/>samples = 7<br/>value = [0, 7]>, fillcolor="#399de5ff"] ;
443 -> 444 ;
445 [label=<ENEMNATURAIS &le; 611.0<br/>gini = 0.5<br/>samples = 2<br/>value = [1, 1]>, fillcolor="#e5813900"] ;
443 -> 445 ;
446 [label=<gini = 0.0<br/>samples = 1<br/>value = [1, 0]>, fillcolor="#e58139ff"] ;
445 -> 446 ;
447 [label=<gini = 0.0<br/>samples = 1<br/>value = [0, 1]>, fillcolor="#399de5ff"] ;
445 -> 447 ;
448 [label=<ENEMLINGUAGEM &le; 638.9<br/>gini = 0.153<br/>samples = 12<br/>value = [1, 11]>, fillcolor="#399de5e8"] ;
430 -> 448 ;
449 [label=<ENEMLINGUAGEM &le; 624.45<br/>gini = 0.5<br/>samples = 2<br/>value = [1, 1]>, fillcolor="#e5813900"] ;
448 -> 449 ;
450 [label=<gini = 0.0<br/>samples = 1<br/>value = [0, 1]>, fillcolor="#399de5ff"] ;
449 -> 450 ;
451 [label=<gini = 0.0<br/>samples = 1<br/>value = [1, 0]>, fillcolor="#e58139ff"] ;
449 -> 451 ;
452 [label=<gini = 0.0<br/>samples = 10<br/>value = [0, 10]>, fillcolor="#399de5ff"] ;
448 -> 452 ;
453 [label=<gini = 0.0<br/>samples = 2<br/>value = [2, 0]>, fillcolor="#e58139ff"] ;
429 -> 453 ;
454 [label=<gini = 0.0<br/>samples = 9<br/>value = [0, 9]>, fillcolor="#399de5ff"] ;
428 -> 454 ;
455 [label=<gini = 0.0<br/>samples = 2<br/>value = [2, 0]>, fillcolor="#e58139ff"] ;
427 -> 455 ;
456 [label=<gini = 0.0<br/>samples = 6<br/>value = [6, 0]>, fillcolor="#e58139ff"] ;
352 -> 456 ;
457 [label=<ENEMHUMANAS &le; 632.05<br/>gini = 0.428<br/>samples = 29<br/>value = [20, 9]>, fillcolor="#e581398c"] ;
351 -> 457 ;
458 [label=<CURSO &le; 315.0<br/>gini = 0.219<br/>samples = 8<br/>value = [1, 7]>, fillcolor="#399de5db"] ;
457 -> 458 ;
459 [label=<gini = 0.0<br/>samples = 1<br/>value = [1, 0]>, fillcolor="#e58139ff"] ;
458 -> 459 ;
460 [label=<gini = 0.0<br/>samples = 7<br/>value = [0, 7]>, fillcolor="#399de5ff"] ;
458 -> 460 ;
461 [label=<IDADE &le; 32.5<br/>gini = 0.172<br/>samples = 21<br/>value = [19, 2]>, fillcolor="#e58139e4"] ;
457 -> 461 ;
462 [label=<COR &le; 1.0<br/>gini = 0.095<br/>samples = 20<br/>value = [19, 1]>, fillcolor="#e58139f2"] ;
461 -> 462 ;
463 [label=<gini = 0.0<br/>samples = 17<br/>value = [17, 0]>, fillcolor="#e58139ff"] ;
462 -> 463 ;
464 [label=<ENEMNATURAIS &le; 600.35<br/>gini = 0.444<br/>samples = 3<br/>value = [2, 1]>, fillcolor="#e581397f"] ;
462 -> 464 ;
465 [label=<gini = 0.0<br/>samples = 1<br/>value = [0, 1]>, fillcolor="#399de5ff"] ;
464 -> 465 ;
466 [label=<gini = 0.0<br/>samples = 2<br/>value = [2, 0]>, fillcolor="#e58139ff"] ;
464 -> 466 ;
467 [label=<gini = 0.0<br/>samples = 1<br/>value = [0, 1]>, fillcolor="#399de5ff"] ;
461 -> 467 ;
468 [label=<CR &le; 7.94<br/>gini = 0.32<br/>samples = 80<br/>value = [16, 64]>, fillcolor="#399de5bf"] ;
350 -> 468 ;
469 [label=<CR &le; 7.81<br/>gini = 0.295<br/>samples = 78<br/>value = [14, 64]>, fillcolor="#399de5c7"] ;
468 -> 469 ;
470 [label=<ENEMNATURAIS &le; 702.9<br/>gini = 0.114<br/>samples = 33<br/>value = [2, 31]>, fillcolor="#399de5ef"] ;
469 -> 470 ;
471 [label=<ENEMREDACAO &le; 890.0<br/>gini = 0.061<br/>samples = 32<br/>value = [1, 31]>, fillcolor="#399de5f7"] ;
470 -> 471 ;
472 [label=<gini = 0.0<br/>samples = 29<br/>value = [0, 29]>, fillcolor="#399de5ff"] ;
471 -> 472 ;
473 [label=<SEMESTREINGRESSO &le; 1.5<br/>gini = 0.444<br/>samples = 3<br/>value = [1, 2]>, fillcolor="#399de57f"] ;
471 -> 473 ;
474 [label=<gini = 0.0<br/>samples = 1<br/>value = [1, 0]>, fillcolor="#e58139ff"] ;
473 -> 474 ;
475 [label=<gini = 0.0<br/>samples = 2<br/>value = [0, 2]>, fillcolor="#399de5ff"] ;
473 -> 475 ;
476 [label=<gini = 0.0<br/>samples = 1<br/>value = [1, 0]>, fillcolor="#e58139ff"] ;
470 -> 476 ;
477 [label=<CR &le; 7.895<br/>gini = 0.391<br/>samples = 45<br/>value = [12, 33]>, fillcolor="#399de5a2"] ;
469 -> 477 ;
478 [label=<COR &le; 2.5<br/>gini = 0.219<br/>samples = 8<br/>value = [7, 1]>, fillcolor="#e58139db"] ;
477 -> 478 ;
479 [label=<gini = 0.0<br/>samples = 7<br/>value = [7, 0]>, fillcolor="#e58139ff"] ;
478 -> 479 ;
480 [label=<gini = 0.0<br/>samples = 1<br/>value = [0, 1]>, fillcolor="#399de5ff"] ;
478 -> 480 ;
481 [label=<ENEMMATEMATICA &le; 645.4<br/>gini = 0.234<br/>samples = 37<br/>value = [5, 32]>, fillcolor="#399de5d7"] ;
477 -> 481 ;
482 [label=<gini = 0.0<br/>samples = 1<br/>value = [1, 0]>, fillcolor="#e58139ff"] ;
481 -> 482 ;
483 [label=<CURSO &le; 3.0<br/>gini = 0.198<br/>samples = 36<br/>value = [4, 32]>, fillcolor="#399de5df"] ;
481 -> 483 ;
484 [label=<gini = 0.0<br/>samples = 1<br/>value = [1, 0]>, fillcolor="#e58139ff"] ;
483 -> 484 ;
485 [label=<IDADE &le; 32.5<br/>gini = 0.157<br/>samples = 35<br/>value = [3, 32]>, fillcolor="#399de5e7"] ;
483 -> 485 ;
486 [label=<ENEMLINGUAGEM &le; 632.5<br/>gini = 0.111<br/>samples = 34<br/>value = [2, 32]>, fillcolor="#399de5ef"] ;
485 -> 486 ;
487 [label=<gini = 0.0<br/>samples = 27<br/>value = [0, 27]>, fillcolor="#399de5ff"] ;
486 -> 487 ;
488 [label=<ENEMREDACAO &le; 740.0<br/>gini = 0.408<br/>samples = 7<br/>value = [2, 5]>, fillcolor="#399de599"] ;
486 -> 488 ;
489 [label=<CURSO &le; 32.0<br/>gini = 0.444<br/>samples = 3<br/>value = [2, 1]>, fillcolor="#e581397f"] ;
488 -> 489 ;
490 [label=<gini = 0.0<br/>samples = 1<br/>value = [0, 1]>, fillcolor="#399de5ff"] ;
489 -> 490 ;
491 [label=<gini = 0.0<br/>samples = 2<br/>value = [2, 0]>, fillcolor="#e58139ff"] ;
489 -> 491 ;
492 [label=<gini = 0.0<br/>samples = 4<br/>value = [0, 4]>, fillcolor="#399de5ff"] ;
488 -> 492 ;
493 [label=<gini = 0.0<br/>samples = 1<br/>value = [1, 0]>, fillcolor="#e58139ff"] ;
485 -> 493 ;
494 [label=<gini = 0.0<br/>samples = 2<br/>value = [2, 0]>, fillcolor="#e58139ff"] ;
468 -> 494 ;
495 [label=<ENEMNATURAIS &le; 688.0<br/>gini = 0.367<br/>samples = 33<br/>value = [25, 8]>, fillcolor="#e58139ad"] ;
305 -> 495 ;
496 [label=<IDADE &le; 36.0<br/>gini = 0.285<br/>samples = 29<br/>value = [24, 5]>, fillcolor="#e58139ca"] ;
495 -> 496 ;
497 [label=<COR &le; 51.5<br/>gini = 0.245<br/>samples = 28<br/>value = [24, 4]>, fillcolor="#e58139d4"] ;
496 -> 497 ;
498 [label=<CURSO &le; 312.5<br/>gini = 0.198<br/>samples = 27<br/>value = [24, 3]>, fillcolor="#e58139df"] ;
497 -> 498 ;
499 [label=<IDADE &le; 24.5<br/>gini = 0.147<br/>samples = 25<br/>value = [23, 2]>, fillcolor="#e58139e9"] ;
498 -> 499 ;
500 [label=<gini = 0.0<br/>samples = 15<br/>value = [15, 0]>, fillcolor="#e58139ff"] ;
499 -> 500 ;
501 [label=<IDADE &le; 25.5<br/>gini = 0.32<br/>samples = 10<br/>value = [8, 2]>, fillcolor="#e58139bf"] ;
499 -> 501 ;
502 [label=<gini = 0.0<br/>samples = 1<br/>value = [0, 1]>, fillcolor="#399de5ff"] ;
501 -> 502 ;
503 [label=<ENEMNATURAIS &le; 581.2<br/>gini = 0.198<br/>samples = 9<br/>value = [8, 1]>, fillcolor="#e58139df"] ;
501 -> 503 ;
504 [label=<ENEMNATURAIS &le; 562.8<br/>gini = 0.5<br/>samples = 2<br/>value = [1, 1]>, fillcolor="#e5813900"] ;
503 -> 504 ;
505 [label=<gini = 0.0<br/>samples = 1<br/>value = [1, 0]>, fillcolor="#e58139ff"] ;
504 -> 505 ;
506 [label=<gini = 0.0<br/>samples = 1<br/>value = [0, 1]>, fillcolor="#399de5ff"] ;
504 -> 506 ;
507 [label=<gini = 0.0<br/>samples = 7<br/>value = [7, 0]>, fillcolor="#e58139ff"] ;
503 -> 507 ;
508 [label=<CURSO &le; 382.0<br/>gini = 0.5<br/>samples = 2<br/>value = [1, 1]>, fillcolor="#e5813900"] ;
498 -> 508 ;
509 [label=<gini = 0.0<br/>samples = 1<br/>value = [0, 1]>, fillcolor="#399de5ff"] ;
508 -> 509 ;
510 [label=<gini = 0.0<br/>samples = 1<br/>value = [1, 0]>, fillcolor="#e58139ff"] ;
508 -> 510 ;
511 [label=<gini = 0.0<br/>samples = 1<br/>value = [0, 1]>, fillcolor="#399de5ff"] ;
497 -> 511 ;
512 [label=<gini = 0.0<br/>samples = 1<br/>value = [0, 1]>, fillcolor="#399de5ff"] ;
496 -> 512 ;
513 [label=<CURSO &le; 25.0<br/>gini = 0.375<br/>samples = 4<br/>value = [1, 3]>, fillcolor="#399de5aa"] ;
495 -> 513 ;
514 [label=<gini = 0.0<br/>samples = 3<br/>value = [0, 3]>, fillcolor="#399de5ff"] ;
513 -> 514 ;
515 [label=<gini = 0.0<br/>samples = 1<br/>value = [1, 0]>, fillcolor="#e58139ff"] ;
513 -> 515 ;
516 [label=<TRANCAMENTOS &le; 0.5<br/>gini = 0.374<br/>samples = 386<br/>value = [96, 290]>, fillcolor="#399de5ab"] ;
304 -> 516 ;
517 [label=<IDADE &le; 29.5<br/>gini = 0.358<br/>samples = 372<br/>value = [87, 285]>, fillcolor="#399de5b1"] ;
516 -> 517 ;
518 [label=<ENEMREDACAO &le; 850.0<br/>gini = 0.318<br/>samples = 312<br/>value = [62, 250]>, fillcolor="#399de5c0"] ;
517 -> 518 ;
519 [label=<ACAOAFIRMATIVA &le; 4.5<br/>gini = 0.283<br/>samples = 270<br/>value = [46, 224]>, fillcolor="#399de5cb"] ;
518 -> 519 ;
520 [label=<ENEMLINGUAGEM &le; 605.55<br/>gini = 0.42<br/>samples = 50<br/>value = [15, 35]>, fillcolor="#399de592"] ;
519 -> 520 ;
521 [label=<CURSO &le; 21.5<br/>gini = 0.32<br/>samples = 35<br/>value = [7, 28]>, fillcolor="#399de5bf"] ;
520 -> 521 ;
522 [label=<ENEMHUMANAS &le; 637.65<br/>gini = 0.494<br/>samples = 9<br/>value = [4, 5]>, fillcolor="#399de533"] ;
521 -> 522 ;
523 [label=<ENEMHUMANAS &le; 604.85<br/>gini = 0.408<br/>samples = 7<br/>value = [2, 5]>, fillcolor="#399de599"] ;
522 -> 523 ;
524 [label=<CR &le; 7.65<br/>gini = 0.444<br/>samples = 3<br/>value = [2, 1]>, fillcolor="#e581397f"] ;
523 -> 524 ;
525 [label=<gini = 0.0<br/>samples = 2<br/>value = [2, 0]>, fillcolor="#e58139ff"] ;
524 -> 525 ;
526 [label=<gini = 0.0<br/>samples = 1<br/>value = [0, 1]>, fillcolor="#399de5ff"] ;
524 -> 526 ;
527 [label=<gini = 0.0<br/>samples = 4<br/>value = [0, 4]>, fillcolor="#399de5ff"] ;
523 -> 527 ;
528 [label=<gini = 0.0<br/>samples = 2<br/>value = [2, 0]>, fillcolor="#e58139ff"] ;
522 -> 528 ;
529 [label=<IDADE &le; 28.0<br/>gini = 0.204<br/>samples = 26<br/>value = [3, 23]>, fillcolor="#399de5de"] ;
521 -> 529 ;
530 [label=<ENEMREDACAO &le; 550.0<br/>gini = 0.083<br/>samples = 23<br/>value = [1, 22]>, fillcolor="#399de5f3"] ;
529 -> 530 ;
531 [label=<ENEMHUMANAS &le; 566.2<br/>gini = 0.32<br/>samples = 5<br/>value = [1, 4]>, fillcolor="#399de5bf"] ;
530 -> 531 ;
532 [label=<gini = 0.0<br/>samples = 4<br/>value = [0, 4]>, fillcolor="#399de5ff"] ;
531 -> 532 ;
533 [label=<gini = 0.0<br/>samples = 1<br/>value = [1, 0]>, fillcolor="#e58139ff"] ;
531 -> 533 ;
534 [label=<gini = 0.0<br/>samples = 18<br/>value = [0, 18]>, fillcolor="#399de5ff"] ;
530 -> 534 ;
535 [label=<ACAOAFIRMATIVA &le; 3.5<br/>gini = 0.444<br/>samples = 3<br/>value = [2, 1]>, fillcolor="#e581397f"] ;
529 -> 535 ;
536 [label=<gini = 0.0<br/>samples = 2<br/>value = [2, 0]>, fillcolor="#e58139ff"] ;
535 -> 536 ;
537 [label=<gini = 0.0<br/>samples = 1<br/>value = [0, 1]>, fillcolor="#399de5ff"] ;
535 -> 537 ;
538 [label=<ENEMLINGUAGEM &le; 625.55<br/>gini = 0.498<br/>samples = 15<br/>value = [8, 7]>, fillcolor="#e5813920"] ;
520 -> 538 ;
539 [label=<gini = 0.0<br/>samples = 7<br/>value = [7, 0]>, fillcolor="#e58139ff"] ;
538 -> 539 ;
540 [label=<ENEMMATEMATICA &le; 768.35<br/>gini = 0.219<br/>samples = 8<br/>value = [1, 7]>, fillcolor="#399de5db"] ;
538 -> 540 ;
541 [label=<gini = 0.0<br/>samples = 6<br/>value = [0, 6]>, fillcolor="#399de5ff"] ;
540 -> 541 ;
542 [label=<CR &le; 7.355<br/>gini = 0.5<br/>samples = 2<br/>value = [1, 1]>, fillcolor="#e5813900"] ;
540 -> 542 ;
543 [label=<gini = 0.0<br/>samples = 1<br/>value = [1, 0]>, fillcolor="#e58139ff"] ;
542 -> 543 ;
544 [label=<gini = 0.0<br/>samples = 1<br/>value = [0, 1]>, fillcolor="#399de5ff"] ;
542 -> 544 ;
545 [label=<CR &le; 7.905<br/>gini = 0.242<br/>samples = 220<br/>value = [31, 189]>, fillcolor="#399de5d5"] ;
519 -> 545 ;
546 [label=<ENEMLINGUAGEM &le; 631.2<br/>gini = 0.232<br/>samples = 217<br/>value = [29, 188]>, fillcolor="#399de5d8"] ;
545 -> 546 ;
547 [label=<ENEMREDACAO &le; 650.0<br/>gini = 0.17<br/>samples = 149<br/>value = [14, 135]>, fillcolor="#399de5e5"] ;
546 -> 547 ;
548 [label=<gini = 0.0<br/>samples = 53<br/>value = [0, 53]>, fillcolor="#399de5ff"] ;
547 -> 548 ;
549 [label=<ENEMMATEMATICA &le; 790.55<br/>gini = 0.249<br/>samples = 96<br/>value = [14, 82]>, fillcolor="#399de5d3"] ;
547 -> 549 ;
550 [label=<CURSO &le; 24.5<br/>gini = 0.225<br/>samples = 93<br/>value = [12, 81]>, fillcolor="#399de5d9"] ;
549 -> 550 ;
551 [label=<CURSO &le; 19.0<br/>gini = 0.408<br/>samples = 21<br/>value = [6, 15]>, fillcolor="#399de599"] ;
550 -> 551 ;
552 [label=<SEMESTREINGRESSO &le; 1.5<br/>gini = 0.153<br/>samples = 12<br/>value = [1, 11]>, fillcolor="#399de5e8"] ;
551 -> 552 ;
553 [label=<gini = 0.0<br/>samples = 11<br/>value = [0, 11]>, fillcolor="#399de5ff"] ;
552 -> 553 ;
554 [label=<gini = 0.0<br/>samples = 1<br/>value = [1, 0]>, fillcolor="#e58139ff"] ;
552 -> 554 ;
555 [label=<ENEMMATEMATICA &le; 663.6<br/>gini = 0.494<br/>samples = 9<br/>value = [5, 4]>, fillcolor="#e5813933"] ;
551 -> 555 ;
556 [label=<CR &le; 7.1<br/>gini = 0.32<br/>samples = 5<br/>value = [1, 4]>, fillcolor="#399de5bf"] ;
555 -> 556 ;
557 [label=<gini = 0.0<br/>samples = 1<br/>value = [1, 0]>, fillcolor="#e58139ff"] ;
556 -> 557 ;
558 [label=<gini = 0.0<br/>samples = 4<br/>value = [0, 4]>, fillcolor="#399de5ff"] ;
556 -> 558 ;
559 [label=<gini = 0.0<br/>samples = 4<br/>value = [4, 0]>, fillcolor="#e58139ff"] ;
555 -> 559 ;
560 [label=<CURSO &le; 432.0<br/>gini = 0.153<br/>samples = 72<br/>value = [6, 66]>, fillcolor="#399de5e8"] ;
550 -> 560 ;
561 [label=<COR &le; 2.5<br/>gini = 0.111<br/>samples = 68<br/>value = [4, 64]>, fillcolor="#399de5ef"] ;
560 -> 561 ;
562 [label=<ENEMHUMANAS &le; 435.25<br/>gini = 0.062<br/>samples = 62<br/>value = [2, 60]>, fillcolor="#399de5f6"] ;
561 -> 562 ;
563 [label=<ENEMHUMANAS &le; 423.05<br/>gini = 0.5<br/>samples = 2<br/>value = [1, 1]>, fillcolor="#e5813900"] ;
562 -> 563 ;
564 [label=<gini = 0.0<br/>samples = 1<br/>value = [0, 1]>, fillcolor="#399de5ff"] ;
563 -> 564 ;
565 [label=<gini = 0.0<br/>samples = 1<br/>value = [1, 0]>, fillcolor="#e58139ff"] ;
563 -> 565 ;
566 [label=<ENEMMATEMATICA &le; 740.8<br/>gini = 0.033<br/>samples = 60<br/>value = [1, 59]>, fillcolor="#399de5fb"] ;
562 -> 566 ;
567 [label=<gini = 0.0<br/>samples = 52<br/>value = [0, 52]>, fillcolor="#399de5ff"] ;
566 -> 567 ;
568 [label=<ENEMMATEMATICA &le; 743.35<br/>gini = 0.219<br/>samples = 8<br/>value = [1, 7]>, fillcolor="#399de5db"] ;
566 -> 568 ;
569 [label=<gini = 0.0<br/>samples = 1<br/>value = [1, 0]>, fillcolor="#e58139ff"] ;
568 -> 569 ;
570 [label=<gini = 0.0<br/>samples = 7<br/>value = [0, 7]>, fillcolor="#399de5ff"] ;
568 -> 570 ;
571 [label=<CR &le; 7.44<br/>gini = 0.444<br/>samples = 6<br/>value = [2, 4]>, fillcolor="#399de57f"] ;
561 -> 571 ;
572 [label=<gini = 0.0<br/>samples = 4<br/>value = [0, 4]>, fillcolor="#399de5ff"] ;
571 -> 572 ;
573 [label=<gini = 0.0<br/>samples = 2<br/>value = [2, 0]>, fillcolor="#e58139ff"] ;
571 -> 573 ;
574 [label=<ENEMNATURAIS &le; 552.0<br/>gini = 0.5<br/>samples = 4<br/>value = [2, 2]>, fillcolor="#e5813900"] ;
560 -> 574 ;
575 [label=<gini = 0.0<br/>samples = 2<br/>value = [0, 2]>, fillcolor="#399de5ff"] ;
574 -> 575 ;
576 [label=<gini = 0.0<br/>samples = 2<br/>value = [2, 0]>, fillcolor="#e58139ff"] ;
574 -> 576 ;
577 [label=<CURSO &le; 28.5<br/>gini = 0.444<br/>samples = 3<br/>value = [2, 1]>, fillcolor="#e581397f"] ;
549 -> 577 ;
578 [label=<gini = 0.0<br/>samples = 1<br/>value = [0, 1]>, fillcolor="#399de5ff"] ;
577 -> 578 ;
579 [label=<gini = 0.0<br/>samples = 2<br/>value = [2, 0]>, fillcolor="#e58139ff"] ;
577 -> 579 ;
580 [label=<IDADE &le; 23.5<br/>gini = 0.344<br/>samples = 68<br/>value = [15, 53]>, fillcolor="#399de5b7"] ;
546 -> 580 ;
581 [label=<CURSO &le; 37.0<br/>gini = 0.469<br/>samples = 8<br/>value = [5, 3]>, fillcolor="#e5813966"] ;
580 -> 581 ;
582 [label=<gini = 0.0<br/>samples = 3<br/>value = [3, 0]>, fillcolor="#e58139ff"] ;
581 -> 582 ;
583 [label=<ENEMLINGUAGEM &le; 638.9<br/>gini = 0.48<br/>samples = 5<br/>value = [2, 3]>, fillcolor="#399de555"] ;
581 -> 583 ;
584 [label=<gini = 0.0<br/>samples = 2<br/>value = [2, 0]>, fillcolor="#e58139ff"] ;
583 -> 584 ;
585 [label=<gini = 0.0<br/>samples = 3<br/>value = [0, 3]>, fillcolor="#399de5ff"] ;
583 -> 585 ;
586 [label=<ENEMNATURAIS &le; 548.6<br/>gini = 0.278<br/>samples = 60<br/>value = [10, 50]>, fillcolor="#399de5cc"] ;
580 -> 586 ;
587 [label=<ENEMNATURAIS &le; 518.45<br/>gini = 0.48<br/>samples = 5<br/>value = [3, 2]>, fillcolor="#e5813955"] ;
586 -> 587 ;
588 [label=<gini = 0.0<br/>samples = 2<br/>value = [0, 2]>, fillcolor="#399de5ff"] ;
587 -> 588 ;
589 [label=<gini = 0.0<br/>samples = 3<br/>value = [3, 0]>, fillcolor="#e58139ff"] ;
587 -> 589 ;
590 [label=<ENEMLINGUAGEM &le; 653.5<br/>gini = 0.222<br/>samples = 55<br/>value = [7, 48]>, fillcolor="#399de5da"] ;
586 -> 590 ;
591 [label=<CURSO &le; 13.5<br/>gini = 0.328<br/>samples = 29<br/>value = [6, 23]>, fillcolor="#399de5bc"] ;
590 -> 591 ;
592 [label=<gini = 0.0<br/>samples = 2<br/>value = [2, 0]>, fillcolor="#e58139ff"] ;
591 -> 592 ;
593 [label=<ENEMLINGUAGEM &le; 652.35<br/>gini = 0.252<br/>samples = 27<br/>value = [4, 23]>, fillcolor="#399de5d3"] ;
591 -> 593 ;
594 [label=<CR &le; 7.615<br/>gini = 0.204<br/>samples = 26<br/>value = [3, 23]>, fillcolor="#399de5de"] ;
593 -> 594 ;
595 [label=<gini = 0.0<br/>samples = 15<br/>value = [0, 15]>, fillcolor="#399de5ff"] ;
594 -> 595 ;
596 [label=<ENEMNATURAIS &le; 619.8<br/>gini = 0.397<br/>samples = 11<br/>value = [3, 8]>, fillcolor="#399de59f"] ;
594 -> 596 ;
597 [label=<ENEMNATURAIS &le; 585.8<br/>gini = 0.5<br/>samples = 6<br/>value = [3, 3]>, fillcolor="#e5813900"] ;
596 -> 597 ;
598 [label=<gini = 0.0<br/>samples = 3<br/>value = [0, 3]>, fillcolor="#399de5ff"] ;
597 -> 598 ;
599 [label=<gini = 0.0<br/>samples = 3<br/>value = [3, 0]>, fillcolor="#e58139ff"] ;
597 -> 599 ;
600 [label=<gini = 0.0<br/>samples = 5<br/>value = [0, 5]>, fillcolor="#399de5ff"] ;
596 -> 600 ;
601 [label=<gini = 0.0<br/>samples = 1<br/>value = [1, 0]>, fillcolor="#e58139ff"] ;
593 -> 601 ;
602 [label=<CR &le; 7.055<br/>gini = 0.074<br/>samples = 26<br/>value = [1, 25]>, fillcolor="#399de5f5"] ;
590 -> 602 ;
603 [label=<ENEMLINGUAGEM &le; 672.1<br/>gini = 0.444<br/>samples = 3<br/>value = [1, 2]>, fillcolor="#399de57f"] ;
602 -> 603 ;
604 [label=<gini = 0.0<br/>samples = 1<br/>value = [1, 0]>, fillcolor="#e58139ff"] ;
603 -> 604 ;
605 [label=<gini = 0.0<br/>samples = 2<br/>value = [0, 2]>, fillcolor="#399de5ff"] ;
603 -> 605 ;
606 [label=<gini = 0.0<br/>samples = 23<br/>value = [0, 23]>, fillcolor="#399de5ff"] ;
602 -> 606 ;
607 [label=<ESTADOCIVIL &le; 0.5<br/>gini = 0.444<br/>samples = 3<br/>value = [2, 1]>, fillcolor="#e581397f"] ;
545 -> 607 ;
608 [label=<gini = 0.0<br/>samples = 2<br/>value = [2, 0]>, fillcolor="#e58139ff"] ;
607 -> 608 ;
609 [label=<gini = 0.0<br/>samples = 1<br/>value = [0, 1]>, fillcolor="#399de5ff"] ;
607 -> 609 ;
610 [label=<ENEMMATEMATICA &le; 617.2<br/>gini = 0.472<br/>samples = 42<br/>value = [16, 26]>, fillcolor="#399de562"] ;
518 -> 610 ;
611 [label=<CURSO &le; 4.5<br/>gini = 0.245<br/>samples = 7<br/>value = [6, 1]>, fillcolor="#e58139d4"] ;
610 -> 611 ;
612 [label=<gini = 0.0<br/>samples = 1<br/>value = [0, 1]>, fillcolor="#399de5ff"] ;
611 -> 612 ;
613 [label=<gini = 0.0<br/>samples = 6<br/>value = [6, 0]>, fillcolor="#e58139ff"] ;
611 -> 613 ;
614 [label=<ENEMLINGUAGEM &le; 620.45<br/>gini = 0.408<br/>samples = 35<br/>value = [10, 25]>, fillcolor="#399de599"] ;
610 -> 614 ;
615 [label=<CURSO &le; 273.0<br/>gini = 0.227<br/>samples = 23<br/>value = [3, 20]>, fillcolor="#399de5d9"] ;
614 -> 615 ;
616 [label=<IDADE &le; 22.5<br/>gini = 0.095<br/>samples = 20<br/>value = [1, 19]>, fillcolor="#399de5f2"] ;
615 -> 616 ;
617 [label=<gini = 0.0<br/>samples = 1<br/>value = [1, 0]>, fillcolor="#e58139ff"] ;
616 -> 617 ;
618 [label=<gini = 0.0<br/>samples = 19<br/>value = [0, 19]>, fillcolor="#399de5ff"] ;
616 -> 618 ;
619 [label=<ENEMHUMANAS &le; 648.9<br/>gini = 0.444<br/>samples = 3<br/>value = [2, 1]>, fillcolor="#e581397f"] ;
615 -> 619 ;
620 [label=<gini = 0.0<br/>samples = 2<br/>value = [2, 0]>, fillcolor="#e58139ff"] ;
619 -> 620 ;
621 [label=<gini = 0.0<br/>samples = 1<br/>value = [0, 1]>, fillcolor="#399de5ff"] ;
619 -> 621 ;
622 [label=<CR &le; 7.36<br/>gini = 0.486<br/>samples = 12<br/>value = [7, 5]>, fillcolor="#e5813949"] ;
614 -> 622 ;
623 [label=<gini = 0.0<br/>samples = 5<br/>value = [5, 0]>, fillcolor="#e58139ff"] ;
622 -> 623 ;
624 [label=<IDADE &le; 25.5<br/>gini = 0.408<br/>samples = 7<br/>value = [2, 5]>, fillcolor="#399de599"] ;
622 -> 624 ;
625 [label=<gini = 0.0<br/>samples = 5<br/>value = [0, 5]>, fillcolor="#399de5ff"] ;
624 -> 625 ;
626 [label=<gini = 0.0<br/>samples = 2<br/>value = [2, 0]>, fillcolor="#e58139ff"] ;
624 -> 626 ;
627 [label=<ENEMLINGUAGEM &le; 577.5<br/>gini = 0.486<br/>samples = 60<br/>value = [25, 35]>, fillcolor="#399de549"] ;
517 -> 627 ;
628 [label=<CR &le; 7.915<br/>gini = 0.33<br/>samples = 24<br/>value = [5, 19]>, fillcolor="#399de5bc"] ;
627 -> 628 ;
629 [label=<CR &le; 7.35<br/>gini = 0.236<br/>samples = 22<br/>value = [3, 19]>, fillcolor="#399de5d7"] ;
628 -> 629 ;
630 [label=<ENEMHUMANAS &le; 492.45<br/>gini = 0.5<br/>samples = 6<br/>value = [3, 3]>, fillcolor="#e5813900"] ;
629 -> 630 ;
631 [label=<gini = 0.0<br/>samples = 2<br/>value = [0, 2]>, fillcolor="#399de5ff"] ;
630 -> 631 ;
632 [label=<ENEMMATEMATICA &le; 529.0<br/>gini = 0.375<br/>samples = 4<br/>value = [3, 1]>, fillcolor="#e58139aa"] ;
630 -> 632 ;
633 [label=<gini = 0.0<br/>samples = 2<br/>value = [2, 0]>, fillcolor="#e58139ff"] ;
632 -> 633 ;
634 [label=<IDADE &le; 46.0<br/>gini = 0.5<br/>samples = 2<br/>value = [1, 1]>, fillcolor="#e5813900"] ;
632 -> 634 ;
635 [label=<gini = 0.0<br/>samples = 1<br/>value = [0, 1]>, fillcolor="#399de5ff"] ;
634 -> 635 ;
636 [label=<gini = 0.0<br/>samples = 1<br/>value = [1, 0]>, fillcolor="#e58139ff"] ;
634 -> 636 ;
637 [label=<gini = 0.0<br/>samples = 16<br/>value = [0, 16]>, fillcolor="#399de5ff"] ;
629 -> 637 ;
638 [label=<gini = 0.0<br/>samples = 2<br/>value = [2, 0]>, fillcolor="#e58139ff"] ;
628 -> 638 ;
639 [label=<ENEMHUMANAS &le; 600.35<br/>gini = 0.494<br/>samples = 36<br/>value = [20, 16]>, fillcolor="#e5813933"] ;
627 -> 639 ;
640 [label=<ACAOAFIRMATIVA &le; 52.5<br/>gini = 0.245<br/>samples = 14<br/>value = [12, 2]>, fillcolor="#e58139d4"] ;
639 -> 640 ;
641 [label=<gini = 0.0<br/>samples = 1<br/>value = [0, 1]>, fillcolor="#399de5ff"] ;
640 -> 641 ;
642 [label=<ESTADOCIVIL &le; 0.5<br/>gini = 0.142<br/>samples = 13<br/>value = [12, 1]>, fillcolor="#e58139ea"] ;
640 -> 642 ;
643 [label=<gini = 0.0<br/>samples = 12<br/>value = [12, 0]>, fillcolor="#e58139ff"] ;
642 -> 643 ;
644 [label=<gini = 0.0<br/>samples = 1<br/>value = [0, 1]>, fillcolor="#399de5ff"] ;
642 -> 644 ;
645 [label=<ENEMHUMANAS &le; 661.95<br/>gini = 0.463<br/>samples = 22<br/>value = [8, 14]>, fillcolor="#399de56d"] ;
639 -> 645 ;
646 [label=<IDADE &le; 41.5<br/>gini = 0.305<br/>samples = 16<br/>value = [3, 13]>, fillcolor="#399de5c4"] ;
645 -> 646 ;
647 [label=<ENEMMATEMATICA &le; 464.75<br/>gini = 0.133<br/>samples = 14<br/>value = [1, 13]>, fillcolor="#399de5eb"] ;
646 -> 647 ;
648 [label=<gini = 0.0<br/>samples = 1<br/>value = [1, 0]>, fillcolor="#e58139ff"] ;
647 -> 648 ;
649 [label=<gini = 0.0<br/>samples = 13<br/>value = [0, 13]>, fillcolor="#399de5ff"] ;
647 -> 649 ;
650 [label=<gini = 0.0<br/>samples = 2<br/>value = [2, 0]>, fillcolor="#e58139ff"] ;
646 -> 650 ;
651 [label=<COR &le; 1.0<br/>gini = 0.278<br/>samples = 6<br/>value = [5, 1]>, fillcolor="#e58139cc"] ;
645 -> 651 ;
652 [label=<gini = 0.0<br/>samples = 5<br/>value = [5, 0]>, fillcolor="#e58139ff"] ;
651 -> 652 ;
653 [label=<gini = 0.0<br/>samples = 1<br/>value = [0, 1]>, fillcolor="#399de5ff"] ;
651 -> 653 ;
654 [label=<ENEMMATEMATICA &le; 562.25<br/>gini = 0.459<br/>samples = 14<br/>value = [9, 5]>, fillcolor="#e5813971"] ;
516 -> 654 ;
655 [label=<gini = 0.0<br/>samples = 3<br/>value = [0, 3]>, fillcolor="#399de5ff"] ;
654 -> 655 ;
656 [label=<IDADE &le; 28.5<br/>gini = 0.298<br/>samples = 11<br/>value = [9, 2]>, fillcolor="#e58139c6"] ;
654 -> 656 ;
657 [label=<gini = 0.0<br/>samples = 9<br/>value = [9, 0]>, fillcolor="#e58139ff"] ;
656 -> 657 ;
658 [label=<gini = 0.0<br/>samples = 2<br/>value = [0, 2]>, fillcolor="#399de5ff"] ;
656 -> 658 ;
659 [label=<ACAOAFIRMATIVA &le; 52.5<br/>gini = 0.297<br/>samples = 1518<br/>value = [275, 1243]>, fillcolor="#399de5c7"] ;
303 -> 659 ;
660 [label=<COR &le; 0.5<br/>gini = 0.338<br/>samples = 1102<br/>value = [237, 865]>, fillcolor="#399de5b9"] ;
659 -> 660 ;
661 [label=<IDADE &le; 28.5<br/>gini = 0.363<br/>samples = 814<br/>value = [194, 620]>, fillcolor="#399de5af"] ;
660 -> 661 ;
662 [label=<ENEMREDACAO &le; 710.0<br/>gini = 0.348<br/>samples = 731<br/>value = [164, 567]>, fillcolor="#399de5b5"] ;
661 -> 662 ;
663 [label=<ENEMREDACAO &le; 530.0<br/>gini = 0.411<br/>samples = 225<br/>value = [65, 160]>, fillcolor="#399de597"] ;
662 -> 663 ;
664 [label=<CR &le; 9.05<br/>gini = 0.105<br/>samples = 18<br/>value = [1, 17]>, fillcolor="#399de5f0"] ;
663 -> 664 ;
665 [label=<gini = 0.0<br/>samples = 16<br/>value = [0, 16]>, fillcolor="#399de5ff"] ;
664 -> 665 ;
666 [label=<ENEMLINGUAGEM &le; 597.75<br/>gini = 0.5<br/>samples = 2<br/>value = [1, 1]>, fillcolor="#e5813900"] ;
664 -> 666 ;
667 [label=<gini = 0.0<br/>samples = 1<br/>value = [0, 1]>, fillcolor="#399de5ff"] ;
666 -> 667 ;
668 [label=<gini = 0.0<br/>samples = 1<br/>value = [1, 0]>, fillcolor="#e58139ff"] ;
666 -> 668 ;
669 [label=<ENEMMATEMATICA &le; 831.0<br/>gini = 0.427<br/>samples = 207<br/>value = [64, 143]>, fillcolor="#399de58d"] ;
663 -> 669 ;
670 [label=<ENEMNATURAIS &le; 691.05<br/>gini = 0.439<br/>samples = 197<br/>value = [64, 133]>, fillcolor="#399de584"] ;
669 -> 670 ;
671 [label=<IDADE &le; 23.5<br/>gini = 0.427<br/>samples = 191<br/>value = [59, 132]>, fillcolor="#399de58d"] ;
670 -> 671 ;
672 [label=<ACAOAFIRMATIVA &le; 1.5<br/>gini = 0.474<br/>samples = 96<br/>value = [37, 59]>, fillcolor="#399de55f"] ;
671 -> 672 ;
673 [label=<CR &le; 8.685<br/>gini = 0.447<br/>samples = 83<br/>value = [28, 55]>, fillcolor="#399de57d"] ;
672 -> 673 ;
674 [label=<ENEMHUMANAS &le; 705.3<br/>gini = 0.49<br/>samples = 49<br/>value = [21, 28]>, fillcolor="#399de540"] ;
673 -> 674 ;
675 [label=<CR &le; 8.62<br/>gini = 0.454<br/>samples = 43<br/>value = [15, 28]>, fillcolor="#399de576"] ;
674 -> 675 ;
676 [label=<ENEMNATURAIS &le; 617.45<br/>gini = 0.433<br/>samples = 41<br/>value = [13, 28]>, fillcolor="#399de589"] ;
675 -> 676 ;
677 [label=<ENEMHUMANAS &le; 653.55<br/>gini = 0.477<br/>samples = 28<br/>value = [11, 17]>, fillcolor="#399de55a"] ;
676 -> 677 ;
678 [label=<ENEMLINGUAGEM &le; 564.15<br/>gini = 0.401<br/>samples = 18<br/>value = [5, 13]>, fillcolor="#399de59d"] ;
677 -> 678 ;
679 [label=<ENEMMATEMATICA &le; 534.4<br/>gini = 0.5<br/>samples = 10<br/>value = [5, 5]>, fillcolor="#e5813900"] ;
678 -> 679 ;
680 [label=<gini = 0.0<br/>samples = 2<br/>value = [0, 2]>, fillcolor="#399de5ff"] ;
679 -> 680 ;
681 [label=<ENEMNATURAIS &le; 544.9<br/>gini = 0.469<br/>samples = 8<br/>value = [5, 3]>, fillcolor="#e5813966"] ;
679 -> 681 ;
682 [label=<gini = 0.0<br/>samples = 4<br/>value = [4, 0]>, fillcolor="#e58139ff"] ;
681 -> 682 ;
683 [label=<ENEMMATEMATICA &le; 663.1<br/>gini = 0.375<br/>samples = 4<br/>value = [1, 3]>, fillcolor="#399de5aa"] ;
681 -> 683 ;
684 [label=<gini = 0.0<br/>samples = 3<br/>value = [0, 3]>, fillcolor="#399de5ff"] ;
683 -> 684 ;
685 [label=<gini = 0.0<br/>samples = 1<br/>value = [1, 0]>, fillcolor="#e58139ff"] ;
683 -> 685 ;
686 [label=<gini = 0.0<br/>samples = 8<br/>value = [0, 8]>, fillcolor="#399de5ff"] ;
678 -> 686 ;
687 [label=<CR &le; 8.38<br/>gini = 0.48<br/>samples = 10<br/>value = [6, 4]>, fillcolor="#e5813955"] ;
677 -> 687 ;
688 [label=<gini = 0.0<br/>samples = 4<br/>value = [4, 0]>, fillcolor="#e58139ff"] ;
687 -> 688 ;
689 [label=<ENEMLINGUAGEM &le; 613.15<br/>gini = 0.444<br/>samples = 6<br/>value = [2, 4]>, fillcolor="#399de57f"] ;
687 -> 689 ;
690 [label=<gini = 0.0<br/>samples = 3<br/>value = [0, 3]>, fillcolor="#399de5ff"] ;
689 -> 690 ;
691 [label=<ENEMLINGUAGEM &le; 679.8<br/>gini = 0.444<br/>samples = 3<br/>value = [2, 1]>, fillcolor="#e581397f"] ;
689 -> 691 ;
692 [label=<gini = 0.0<br/>samples = 2<br/>value = [2, 0]>, fillcolor="#e58139ff"] ;
691 -> 692 ;
693 [label=<gini = 0.0<br/>samples = 1<br/>value = [0, 1]>, fillcolor="#399de5ff"] ;
691 -> 693 ;
694 [label=<SEXO &le; 0.5<br/>gini = 0.26<br/>samples = 13<br/>value = [2, 11]>, fillcolor="#399de5d1"] ;
676 -> 694 ;
695 [label=<gini = 0.0<br/>samples = 7<br/>value = [0, 7]>, fillcolor="#399de5ff"] ;
694 -> 695 ;
696 [label=<CURSO &le; 31.0<br/>gini = 0.444<br/>samples = 6<br/>value = [2, 4]>, fillcolor="#399de57f"] ;
694 -> 696 ;
697 [label=<gini = 0.0<br/>samples = 3<br/>value = [0, 3]>, fillcolor="#399de5ff"] ;
696 -> 697 ;
698 [label=<ENEMHUMANAS &le; 673.45<br/>gini = 0.444<br/>samples = 3<br/>value = [2, 1]>, fillcolor="#e581397f"] ;
696 -> 698 ;
699 [label=<gini = 0.0<br/>samples = 1<br/>value = [0, 1]>, fillcolor="#399de5ff"] ;
698 -> 699 ;
700 [label=<gini = 0.0<br/>samples = 2<br/>value = [2, 0]>, fillcolor="#e58139ff"] ;
698 -> 700 ;
701 [label=<gini = 0.0<br/>samples = 2<br/>value = [2, 0]>, fillcolor="#e58139ff"] ;
675 -> 701 ;
702 [label=<gini = 0.0<br/>samples = 6<br/>value = [6, 0]>, fillcolor="#e58139ff"] ;
674 -> 702 ;
703 [label=<SEMESTREINGRESSO &le; 1.5<br/>gini = 0.327<br/>samples = 34<br/>value = [7, 27]>, fillcolor="#399de5bd"] ;
673 -> 703 ;
704 [label=<CURSO &le; 372.5<br/>gini = 0.111<br/>samples = 17<br/>value = [1, 16]>, fillcolor="#399de5ef"] ;
703 -> 704 ;
705 [label=<gini = 0.0<br/>samples = 15<br/>value = [0, 15]>, fillcolor="#399de5ff"] ;
704 -> 705 ;
706 [label=<ENEMHUMANAS &le; 683.0<br/>gini = 0.5<br/>samples = 2<br/>value = [1, 1]>, fillcolor="#e5813900"] ;
704 -> 706 ;
707 [label=<gini = 0.0<br/>samples = 1<br/>value = [1, 0]>, fillcolor="#e58139ff"] ;
706 -> 707 ;
708 [label=<gini = 0.0<br/>samples = 1<br/>value = [0, 1]>, fillcolor="#399de5ff"] ;
706 -> 708 ;
709 [label=<ENEMHUMANAS &le; 644.0<br/>gini = 0.457<br/>samples = 17<br/>value = [6, 11]>, fillcolor="#399de574"] ;
703 -> 709 ;
710 [label=<ENEMMATEMATICA &le; 642.15<br/>gini = 0.469<br/>samples = 8<br/>value = [5, 3]>, fillcolor="#e5813966"] ;
709 -> 710 ;
711 [label=<ENEMLINGUAGEM &le; 512.95<br/>gini = 0.375<br/>samples = 4<br/>value = [1, 3]>, fillcolor="#399de5aa"] ;
710 -> 711 ;
712 [label=<gini = 0.0<br/>samples = 1<br/>value = [1, 0]>, fillcolor="#e58139ff"] ;
711 -> 712 ;
713 [label=<gini = 0.0<br/>samples = 3<br/>value = [0, 3]>, fillcolor="#399de5ff"] ;
711 -> 713 ;
714 [label=<gini = 0.0<br/>samples = 4<br/>value = [4, 0]>, fillcolor="#e58139ff"] ;
710 -> 714 ;
715 [label=<ENEMHUMANAS &le; 692.0<br/>gini = 0.198<br/>samples = 9<br/>value = [1, 8]>, fillcolor="#399de5df"] ;
709 -> 715 ;
716 [label=<gini = 0.0<br/>samples = 7<br/>value = [0, 7]>, fillcolor="#399de5ff"] ;
715 -> 716 ;
717 [label=<ENEMMATEMATICA &le; 761.45<br/>gini = 0.5<br/>samples = 2<br/>value = [1, 1]>, fillcolor="#e5813900"] ;
715 -> 717 ;
718 [label=<gini = 0.0<br/>samples = 1<br/>value = [1, 0]>, fillcolor="#e58139ff"] ;
717 -> 718 ;
719 [label=<gini = 0.0<br/>samples = 1<br/>value = [0, 1]>, fillcolor="#399de5ff"] ;
717 -> 719 ;
720 [label=<ENEMMATEMATICA &le; 661.0<br/>gini = 0.426<br/>samples = 13<br/>value = [9, 4]>, fillcolor="#e581398e"] ;
672 -> 720 ;
721 [label=<CR &le; 8.905<br/>gini = 0.444<br/>samples = 6<br/>value = [2, 4]>, fillcolor="#399de57f"] ;
720 -> 721 ;
722 [label=<gini = 0.0<br/>samples = 3<br/>value = [0, 3]>, fillcolor="#399de5ff"] ;
721 -> 722 ;
723 [label=<CURSO &le; 102.5<br/>gini = 0.444<br/>samples = 3<br/>value = [2, 1]>, fillcolor="#e581397f"] ;
721 -> 723 ;
724 [label=<gini = 0.0<br/>samples = 2<br/>value = [2, 0]>, fillcolor="#e58139ff"] ;
723 -> 724 ;
725 [label=<gini = 0.0<br/>samples = 1<br/>value = [0, 1]>, fillcolor="#399de5ff"] ;
723 -> 725 ;
726 [label=<gini = 0.0<br/>samples = 7<br/>value = [7, 0]>, fillcolor="#e58139ff"] ;
720 -> 726 ;
727 [label=<CURSO &le; 63.0<br/>gini = 0.356<br/>samples = 95<br/>value = [22, 73]>, fillcolor="#399de5b2"] ;
671 -> 727 ;
728 [label=<CR &le; 9.75<br/>gini = 0.187<br/>samples = 48<br/>value = [5, 43]>, fillcolor="#399de5e1"] ;
727 -> 728 ;
729 [label=<ENEMNATURAIS &le; 652.05<br/>gini = 0.156<br/>samples = 47<br/>value = [4, 43]>, fillcolor="#399de5e7"] ;
728 -> 729 ;
730 [label=<IDADE &le; 27.5<br/>gini = 0.124<br/>samples = 45<br/>value = [3, 42]>, fillcolor="#399de5ed"] ;
729 -> 730 ;
731 [label=<ENEMMATEMATICA &le; 729.55<br/>gini = 0.089<br/>samples = 43<br/>value = [2, 41]>, fillcolor="#399de5f3"] ;
730 -> 731 ;
732 [label=<gini = 0.0<br/>samples = 31<br/>value = [0, 31]>, fillcolor="#399de5ff"] ;
731 -> 732 ;
733 [label=<ENEMREDACAO &le; 580.0<br/>gini = 0.278<br/>samples = 12<br/>value = [2, 10]>, fillcolor="#399de5cc"] ;
731 -> 733 ;
734 [label=<gini = 0.0<br/>samples = 1<br/>value = [1, 0]>, fillcolor="#e58139ff"] ;
733 -> 734 ;
735 [label=<ENEMMATEMATICA &le; 733.5<br/>gini = 0.165<br/>samples = 11<br/>value = [1, 10]>, fillcolor="#399de5e6"] ;
733 -> 735 ;
736 [label=<gini = 0.0<br/>samples = 1<br/>value = [1, 0]>, fillcolor="#e58139ff"] ;
735 -> 736 ;
737 [label=<gini = 0.0<br/>samples = 10<br/>value = [0, 10]>, fillcolor="#399de5ff"] ;
735 -> 737 ;
738 [label=<ENEMHUMANAS &le; 641.85<br/>gini = 0.5<br/>samples = 2<br/>value = [1, 1]>, fillcolor="#e5813900"] ;
730 -> 738 ;
739 [label=<gini = 0.0<br/>samples = 1<br/>value = [1, 0]>, fillcolor="#e58139ff"] ;
738 -> 739 ;
740 [label=<gini = 0.0<br/>samples = 1<br/>value = [0, 1]>, fillcolor="#399de5ff"] ;
738 -> 740 ;
741 [label=<ENEMMATEMATICA &le; 693.4<br/>gini = 0.5<br/>samples = 2<br/>value = [1, 1]>, fillcolor="#e5813900"] ;
729 -> 741 ;
742 [label=<gini = 0.0<br/>samples = 1<br/>value = [1, 0]>, fillcolor="#e58139ff"] ;
741 -> 742 ;
743 [label=<gini = 0.0<br/>samples = 1<br/>value = [0, 1]>, fillcolor="#399de5ff"] ;
741 -> 743 ;
744 [label=<gini = 0.0<br/>samples = 1<br/>value = [1, 0]>, fillcolor="#e58139ff"] ;
728 -> 744 ;
745 [label=<CURSO &le; 83.0<br/>gini = 0.462<br/>samples = 47<br/>value = [17, 30]>, fillcolor="#399de56e"] ;
727 -> 745 ;
746 [label=<gini = 0.0<br/>samples = 5<br/>value = [5, 0]>, fillcolor="#e58139ff"] ;
745 -> 746 ;
747 [label=<ENEMHUMANAS &le; 617.55<br/>gini = 0.408<br/>samples = 42<br/>value = [12, 30]>, fillcolor="#399de599"] ;
745 -> 747 ;
748 [label=<TRANCAMENTOS &le; 0.5<br/>gini = 0.142<br/>samples = 13<br/>value = [1, 12]>, fillcolor="#399de5ea"] ;
747 -> 748 ;
749 [label=<gini = 0.0<br/>samples = 12<br/>value = [0, 12]>, fillcolor="#399de5ff"] ;
748 -> 749 ;
750 [label=<gini = 0.0<br/>samples = 1<br/>value = [1, 0]>, fillcolor="#e58139ff"] ;
748 -> 750 ;
751 [label=<ENEMHUMANAS &le; 637.85<br/>gini = 0.471<br/>samples = 29<br/>value = [11, 18]>, fillcolor="#399de563"] ;
747 -> 751 ;
752 [label=<gini = 0.0<br/>samples = 5<br/>value = [5, 0]>, fillcolor="#e58139ff"] ;
751 -> 752 ;
753 [label=<CURSO &le; 275.0<br/>gini = 0.375<br/>samples = 24<br/>value = [6, 18]>, fillcolor="#399de5aa"] ;
751 -> 753 ;
754 [label=<IDADE &le; 26.5<br/>gini = 0.5<br/>samples = 10<br/>value = [5, 5]>, fillcolor="#e5813900"] ;
753 -> 754 ;
755 [label=<ENEMHUMANAS &le; 712.2<br/>gini = 0.469<br/>samples = 8<br/>value = [5, 3]>, fillcolor="#e5813966"] ;
754 -> 755 ;
756 [label=<ENEMHUMANAS &le; 652.15<br/>gini = 0.278<br/>samples = 6<br/>value = [5, 1]>, fillcolor="#e58139cc"] ;
755 -> 756 ;
757 [label=<gini = 0.0<br/>samples = 1<br/>value = [0, 1]>, fillcolor="#399de5ff"] ;
756 -> 757 ;
758 [label=<gini = 0.0<br/>samples = 5<br/>value = [5, 0]>, fillcolor="#e58139ff"] ;
756 -> 758 ;
759 [label=<gini = 0.0<br/>samples = 2<br/>value = [0, 2]>, fillcolor="#399de5ff"] ;
755 -> 759 ;
760 [label=<gini = 0.0<br/>samples = 2<br/>value = [0, 2]>, fillcolor="#399de5ff"] ;
754 -> 760 ;
761 [label=<ENEMMATEMATICA &le; 730.7<br/>gini = 0.133<br/>samples = 14<br/>value = [1, 13]>, fillcolor="#399de5eb"] ;
753 -> 761 ;
762 [label=<gini = 0.0<br/>samples = 11<br/>value = [0, 11]>, fillcolor="#399de5ff"] ;
761 -> 762 ;
763 [label=<ENEMLINGUAGEM &le; 655.25<br/>gini = 0.444<br/>samples = 3<br/>value = [1, 2]>, fillcolor="#399de57f"] ;
761 -> 763 ;
764 [label=<gini = 0.0<br/>samples = 2<br/>value = [0, 2]>, fillcolor="#399de5ff"] ;
763 -> 764 ;
765 [label=<gini = 0.0<br/>samples = 1<br/>value = [1, 0]>, fillcolor="#e58139ff"] ;
763 -> 765 ;
766 [label=<ENEMLINGUAGEM &le; 705.95<br/>gini = 0.278<br/>samples = 6<br/>value = [5, 1]>, fillcolor="#e58139cc"] ;
670 -> 766 ;
767 [label=<gini = 0.0<br/>samples = 5<br/>value = [5, 0]>, fillcolor="#e58139ff"] ;
766 -> 767 ;
768 [label=<gini = 0.0<br/>samples = 1<br/>value = [0, 1]>, fillcolor="#399de5ff"] ;
766 -> 768 ;
769 [label=<gini = 0.0<br/>samples = 10<br/>value = [0, 10]>, fillcolor="#399de5ff"] ;
669 -> 769 ;
770 [label=<ENEMMATEMATICA &le; 859.1<br/>gini = 0.315<br/>samples = 506<br/>value = [99, 407]>, fillcolor="#399de5c1"] ;
662 -> 770 ;
771 [label=<ENEMMATEMATICA &le; 673.85<br/>gini = 0.303<br/>samples = 494<br/>value = [92, 402]>, fillcolor="#399de5c5"] ;
770 -> 771 ;
772 [label=<IDADE &le; 25.5<br/>gini = 0.193<br/>samples = 148<br/>value = [16, 132]>, fillcolor="#399de5e0"] ;
771 -> 772 ;
773 [label=<ENEMLINGUAGEM &le; 576.15<br/>gini = 0.16<br/>samples = 137<br/>value = [12, 125]>, fillcolor="#399de5e7"] ;
772 -> 773 ;
774 [label=<gini = 0.0<br/>samples = 31<br/>value = [0, 31]>, fillcolor="#399de5ff"] ;
773 -> 774 ;
775 [label=<ENEMLINGUAGEM &le; 580.25<br/>gini = 0.201<br/>samples = 106<br/>value = [12, 94]>, fillcolor="#399de5de"] ;
773 -> 775 ;
776 [label=<SEMESTREINGRESSO &le; 1.5<br/>gini = 0.444<br/>samples = 3<br/>value = [2, 1]>, fillcolor="#e581397f"] ;
775 -> 776 ;
777 [label=<gini = 0.0<br/>samples = 1<br/>value = [0, 1]>, fillcolor="#399de5ff"] ;
776 -> 777 ;
778 [label=<gini = 0.0<br/>samples = 2<br/>value = [2, 0]>, fillcolor="#e58139ff"] ;
776 -> 778 ;
779 [label=<ENEMMATEMATICA &le; 532.7<br/>gini = 0.175<br/>samples = 103<br/>value = [10, 93]>, fillcolor="#399de5e4"] ;
775 -> 779 ;
780 [label=<ENEMMATEMATICA &le; 472.0<br/>gini = 0.5<br/>samples = 4<br/>value = [2, 2]>, fillcolor="#e5813900"] ;
779 -> 780 ;
781 [label=<gini = 0.0<br/>samples = 2<br/>value = [0, 2]>, fillcolor="#399de5ff"] ;
780 -> 781 ;
782 [label=<gini = 0.0<br/>samples = 2<br/>value = [2, 0]>, fillcolor="#e58139ff"] ;
780 -> 782 ;
783 [label=<ENEMHUMANAS &le; 584.9<br/>gini = 0.149<br/>samples = 99<br/>value = [8, 91]>, fillcolor="#399de5e9"] ;
779 -> 783 ;
784 [label=<ENEMNATURAIS &le; 537.4<br/>gini = 0.48<br/>samples = 5<br/>value = [2, 3]>, fillcolor="#399de555"] ;
783 -> 784 ;
785 [label=<gini = 0.0<br/>samples = 2<br/>value = [2, 0]>, fillcolor="#e58139ff"] ;
784 -> 785 ;
786 [label=<gini = 0.0<br/>samples = 3<br/>value = [0, 3]>, fillcolor="#399de5ff"] ;
784 -> 786 ;
787 [label=<CR &le; 8.29<br/>gini = 0.12<br/>samples = 94<br/>value = [6, 88]>, fillcolor="#399de5ee"] ;
783 -> 787 ;
788 [label=<CR &le; 8.24<br/>gini = 0.298<br/>samples = 22<br/>value = [4, 18]>, fillcolor="#399de5c6"] ;
787 -> 788 ;
789 [label=<ACAOAFIRMATIVA &le; 3.0<br/>gini = 0.18<br/>samples = 20<br/>value = [2, 18]>, fillcolor="#399de5e3"] ;
788 -> 789 ;
790 [label=<ENEMLINGUAGEM &le; 640.45<br/>gini = 0.1<br/>samples = 19<br/>value = [1, 18]>, fillcolor="#399de5f1"] ;
789 -> 790 ;
791 [label=<gini = 0.0<br/>samples = 16<br/>value = [0, 16]>, fillcolor="#399de5ff"] ;
790 -> 791 ;
792 [label=<ENEMREDACAO &le; 770.0<br/>gini = 0.444<br/>samples = 3<br/>value = [1, 2]>, fillcolor="#399de57f"] ;
790 -> 792 ;
793 [label=<gini = 0.0<br/>samples = 1<br/>value = [1, 0]>, fillcolor="#e58139ff"] ;
792 -> 793 ;
794 [label=<gini = 0.0<br/>samples = 2<br/>value = [0, 2]>, fillcolor="#399de5ff"] ;
792 -> 794 ;
795 [label=<gini = 0.0<br/>samples = 1<br/>value = [1, 0]>, fillcolor="#e58139ff"] ;
789 -> 795 ;
796 [label=<gini = 0.0<br/>samples = 2<br/>value = [2, 0]>, fillcolor="#e58139ff"] ;
788 -> 796 ;
797 [label=<CURSO &le; 432.0<br/>gini = 0.054<br/>samples = 72<br/>value = [2, 70]>, fillcolor="#399de5f8"] ;
787 -> 797 ;
798 [label=<ENEMLINGUAGEM &le; 669.7<br/>gini = 0.029<br/>samples = 68<br/>value = [1, 67]>, fillcolor="#399de5fb"] ;
797 -> 798 ;
799 [label=<gini = 0.0<br/>samples = 64<br/>value = [0, 64]>, fillcolor="#399de5ff"] ;
798 -> 799 ;
800 [label=<ENEMNATURAIS &le; 649.0<br/>gini = 0.375<br/>samples = 4<br/>value = [1, 3]>, fillcolor="#399de5aa"] ;
798 -> 800 ;
801 [label=<gini = 0.0<br/>samples = 3<br/>value = [0, 3]>, fillcolor="#399de5ff"] ;
800 -> 801 ;
802 [label=<gini = 0.0<br/>samples = 1<br/>value = [1, 0]>, fillcolor="#e58139ff"] ;
800 -> 802 ;
803 [label=<ENEMREDACAO &le; 860.0<br/>gini = 0.375<br/>samples = 4<br/>value = [1, 3]>, fillcolor="#399de5aa"] ;
797 -> 803 ;
804 [label=<gini = 0.0<br/>samples = 3<br/>value = [0, 3]>, fillcolor="#399de5ff"] ;
803 -> 804 ;
805 [label=<gini = 0.0<br/>samples = 1<br/>value = [1, 0]>, fillcolor="#e58139ff"] ;
803 -> 805 ;
806 [label=<ENEMNATURAIS &le; 629.2<br/>gini = 0.463<br/>samples = 11<br/>value = [4, 7]>, fillcolor="#399de56d"] ;
772 -> 806 ;
807 [label=<ENEMNATURAIS &le; 550.55<br/>gini = 0.346<br/>samples = 9<br/>value = [2, 7]>, fillcolor="#399de5b6"] ;
806 -> 807 ;
808 [label=<CURSO &le; 115.0<br/>gini = 0.5<br/>samples = 4<br/>value = [2, 2]>, fillcolor="#e5813900"] ;
807 -> 808 ;
809 [label=<gini = 0.0<br/>samples = 2<br/>value = [0, 2]>, fillcolor="#399de5ff"] ;
808 -> 809 ;
810 [label=<gini = 0.0<br/>samples = 2<br/>value = [2, 0]>, fillcolor="#e58139ff"] ;
808 -> 810 ;
811 [label=<gini = 0.0<br/>samples = 5<br/>value = [0, 5]>, fillcolor="#399de5ff"] ;
807 -> 811 ;
812 [label=<gini = 0.0<br/>samples = 2<br/>value = [2, 0]>, fillcolor="#e58139ff"] ;
806 -> 812 ;
813 [label=<CURSO &le; 61.5<br/>gini = 0.343<br/>samples = 346<br/>value = [76, 270]>, fillcolor="#399de5b7"] ;
771 -> 813 ;
814 [label=<CURSO &le; 56.5<br/>gini = 0.315<br/>samples = 271<br/>value = [53, 218]>, fillcolor="#399de5c1"] ;
813 -> 814 ;
815 [label=<CURSO &le; 51.0<br/>gini = 0.346<br/>samples = 225<br/>value = [50, 175]>, fillcolor="#399de5b6"] ;
814 -> 815 ;
816 [label=<ENEMHUMANAS &le; 765.25<br/>gini = 0.325<br/>samples = 220<br/>value = [45, 175]>, fillcolor="#399de5bd"] ;
815 -> 816 ;
817 [label=<ENEMLINGUAGEM &le; 711.45<br/>gini = 0.313<br/>samples = 216<br/>value = [42, 174]>, fillcolor="#399de5c1"] ;
816 -> 817 ;
818 [label=<ENEMHUMANAS &le; 652.5<br/>gini = 0.301<br/>samples = 211<br/>value = [39, 172]>, fillcolor="#399de5c5"] ;
817 -> 818 ;
819 [label=<IDADE &le; 27.5<br/>gini = 0.13<br/>samples = 43<br/>value = [3, 40]>, fillcolor="#399de5ec"] ;
818 -> 819 ;
820 [label=<ACAOAFIRMATIVA &le; 2.5<br/>gini = 0.093<br/>samples = 41<br/>value = [2, 39]>, fillcolor="#399de5f2"] ;
819 -> 820 ;
821 [label=<CURSO &le; 42.0<br/>gini = 0.05<br/>samples = 39<br/>value = [1, 38]>, fillcolor="#399de5f8"] ;
820 -> 821 ;
822 [label=<gini = 0.0<br/>samples = 33<br/>value = [0, 33]>, fillcolor="#399de5ff"] ;
821 -> 822 ;
823 [label=<CURSO &le; 46.5<br/>gini = 0.278<br/>samples = 6<br/>value = [1, 5]>, fillcolor="#399de5cc"] ;
821 -> 823 ;
824 [label=<gini = 0.0<br/>samples = 1<br/>value = [1, 0]>, fillcolor="#e58139ff"] ;
823 -> 824 ;
825 [label=<gini = 0.0<br/>samples = 5<br/>value = [0, 5]>, fillcolor="#399de5ff"] ;
823 -> 825 ;
826 [label=<CR &le; 8.835<br/>gini = 0.5<br/>samples = 2<br/>value = [1, 1]>, fillcolor="#e5813900"] ;
820 -> 826 ;
827 [label=<gini = 0.0<br/>samples = 1<br/>value = [1, 0]>, fillcolor="#e58139ff"] ;
826 -> 827 ;
828 [label=<gini = 0.0<br/>samples = 1<br/>value = [0, 1]>, fillcolor="#399de5ff"] ;
826 -> 828 ;
829 [label=<ENEMREDACAO &le; 830.0<br/>gini = 0.5<br/>samples = 2<br/>value = [1, 1]>, fillcolor="#e5813900"] ;
819 -> 829 ;
830 [label=<gini = 0.0<br/>samples = 1<br/>value = [1, 0]>, fillcolor="#e58139ff"] ;
829 -> 830 ;
831 [label=<gini = 0.0<br/>samples = 1<br/>value = [0, 1]>, fillcolor="#399de5ff"] ;
829 -> 831 ;
832 [label=<ENEMNATURAIS &le; 596.35<br/>gini = 0.337<br/>samples = 168<br/>value = [36, 132]>, fillcolor="#399de5b9"] ;
818 -> 832 ;
833 [label=<ENEMHUMANAS &le; 680.8<br/>gini = 0.495<br/>samples = 20<br/>value = [9, 11]>, fillcolor="#399de52e"] ;
832 -> 833 ;
834 [label=<CURSO &le; 48.0<br/>gini = 0.346<br/>samples = 9<br/>value = [2, 7]>, fillcolor="#399de5b6"] ;
833 -> 834 ;
835 [label=<ENEMNATURAIS &le; 591.05<br/>gini = 0.219<br/>samples = 8<br/>value = [1, 7]>, fillcolor="#399de5db"] ;
834 -> 835 ;
836 [label=<gini = 0.0<br/>samples = 7<br/>value = [0, 7]>, fillcolor="#399de5ff"] ;
835 -> 836 ;
837 [label=<gini = 0.0<br/>samples = 1<br/>value = [1, 0]>, fillcolor="#e58139ff"] ;
835 -> 837 ;
838 [label=<gini = 0.0<br/>samples = 1<br/>value = [1, 0]>, fillcolor="#e58139ff"] ;
834 -> 838 ;
839 [label=<ENEMLINGUAGEM &le; 631.4<br/>gini = 0.463<br/>samples = 11<br/>value = [7, 4]>, fillcolor="#e581396d"] ;
833 -> 839 ;
840 [label=<gini = 0.0<br/>samples = 5<br/>value = [5, 0]>, fillcolor="#e58139ff"] ;
839 -> 840 ;
841 [label=<IDADE &le; 24.5<br/>gini = 0.444<br/>samples = 6<br/>value = [2, 4]>, fillcolor="#399de57f"] ;
839 -> 841 ;
842 [label=<gini = 0.0<br/>samples = 3<br/>value = [0, 3]>, fillcolor="#399de5ff"] ;
841 -> 842 ;
843 [label=<SEMESTREINGRESSO &le; 1.5<br/>gini = 0.444<br/>samples = 3<br/>value = [2, 1]>, fillcolor="#e581397f"] ;
841 -> 843 ;
844 [label=<gini = 0.0<br/>samples = 2<br/>value = [2, 0]>, fillcolor="#e58139ff"] ;
843 -> 844 ;
845 [label=<gini = 0.0<br/>samples = 1<br/>value = [0, 1]>, fillcolor="#399de5ff"] ;
843 -> 845 ;
846 [label=<ENEMMATEMATICA &le; 683.4<br/>gini = 0.298<br/>samples = 148<br/>value = [27, 121]>, fillcolor="#399de5c6"] ;
832 -> 846 ;
847 [label=<ENEMLINGUAGEM &le; 652.75<br/>gini = 0.48<br/>samples = 5<br/>value = [3, 2]>, fillcolor="#e5813955"] ;
846 -> 847 ;
848 [label=<gini = 0.0<br/>samples = 3<br/>value = [3, 0]>, fillcolor="#e58139ff"] ;
847 -> 848 ;
849 [label=<gini = 0.0<br/>samples = 2<br/>value = [0, 2]>, fillcolor="#399de5ff"] ;
847 -> 849 ;
850 [label=<ENEMHUMANAS &le; 653.9<br/>gini = 0.279<br/>samples = 143<br/>value = [24, 119]>, fillcolor="#399de5cc"] ;
846 -> 850 ;
851 [label=<gini = 0.0<br/>samples = 1<br/>value = [1, 0]>, fillcolor="#e58139ff"] ;
850 -> 851 ;
852 [label=<ENEMLINGUAGEM &le; 678.25<br/>gini = 0.271<br/>samples = 142<br/>value = [23, 119]>, fillcolor="#399de5ce"] ;
850 -> 852 ;
853 [label=<ENEMLINGUAGEM &le; 674.3<br/>gini = 0.304<br/>samples = 123<br/>value = [23, 100]>, fillcolor="#399de5c4"] ;
852 -> 853 ;
854 [label=<IDADE &le; 25.5<br/>gini = 0.287<br/>samples = 121<br/>value = [21, 100]>, fillcolor="#399de5c9"] ;
853 -> 854 ;
855 [label=<ENEMNATURAIS &le; 660.55<br/>gini = 0.322<br/>samples = 104<br/>value = [21, 83]>, fillcolor="#399de5be"] ;
854 -> 855 ;
856 [label=<ENEMHUMANAS &le; 754.35<br/>gini = 0.25<br/>samples = 75<br/>value = [11, 64]>, fillcolor="#399de5d3"] ;
855 -> 856 ;
857 [label=<ENEMHUMANAS &le; 660.2<br/>gini = 0.234<br/>samples = 74<br/>value = [10, 64]>, fillcolor="#399de5d7"] ;
856 -> 857 ;
858 [label=<IDADE &le; 23.5<br/>gini = 0.5<br/>samples = 4<br/>value = [2, 2]>, fillcolor="#e5813900"] ;
857 -> 858 ;
859 [label=<gini = 0.0<br/>samples = 2<br/>value = [0, 2]>, fillcolor="#399de5ff"] ;
858 -> 859 ;
860 [label=<gini = 0.0<br/>samples = 2<br/>value = [2, 0]>, fillcolor="#e58139ff"] ;
858 -> 860 ;
861 [label=<CR &le; 8.35<br/>gini = 0.202<br/>samples = 70<br/>value = [8, 62]>, fillcolor="#399de5de"] ;
857 -> 861 ;
862 [label=<gini = 0.0<br/>samples = 20<br/>value = [0, 20]>, fillcolor="#399de5ff"] ;
861 -> 862 ;
863 [label=<ENEMLINGUAGEM &le; 591.2<br/>gini = 0.269<br/>samples = 50<br/>value = [8, 42]>, fillcolor="#399de5ce"] ;
861 -> 863 ;
864 [label=<gini = 0.0<br/>samples = 1<br/>value = [1, 0]>, fillcolor="#e58139ff"] ;
863 -> 864 ;
865 [label=<CURSO &le; 35.0<br/>gini = 0.245<br/>samples = 49<br/>value = [7, 42]>, fillcolor="#399de5d4"] ;
863 -> 865 ;
866 [label=<ENEMMATEMATICA &le; 693.05<br/>gini = 0.176<br/>samples = 41<br/>value = [4, 37]>, fillcolor="#399de5e3"] ;
865 -> 866 ;
867 [label=<ENEMHUMANAS &le; 674.05<br/>gini = 0.5<br/>samples = 2<br/>value = [1, 1]>, fillcolor="#e5813900"] ;
866 -> 867 ;
868 [label=<gini = 0.0<br/>samples = 1<br/>value = [0, 1]>, fillcolor="#399de5ff"] ;
867 -> 868 ;
869 [label=<gini = 0.0<br/>samples = 1<br/>value = [1, 0]>, fillcolor="#e58139ff"] ;
867 -> 869 ;
870 [label=<ENEMMATEMATICA &le; 836.3<br/>gini = 0.142<br/>samples = 39<br/>value = [3, 36]>, fillcolor="#399de5ea"] ;
866 -> 870 ;
871 [label=<IDADE &le; 24.5<br/>gini = 0.102<br/>samples = 37<br/>value = [2, 35]>, fillcolor="#399de5f0"] ;
870 -> 871 ;
872 [label=<ENEMLINGUAGEM &le; 656.6<br/>gini = 0.057<br/>samples = 34<br/>value = [1, 33]>, fillcolor="#399de5f7"] ;
871 -> 872 ;
873 [label=<gini = 0.0<br/>samples = 29<br/>value = [0, 29]>, fillcolor="#399de5ff"] ;
872 -> 873 ;
874 [label=<ENEMLINGUAGEM &le; 658.45<br/>gini = 0.32<br/>samples = 5<br/>value = [1, 4]>, fillcolor="#399de5bf"] ;
872 -> 874 ;
875 [label=<gini = 0.0<br/>samples = 1<br/>value = [1, 0]>, fillcolor="#e58139ff"] ;
874 -> 875 ;
876 [label=<gini = 0.0<br/>samples = 4<br/>value = [0, 4]>, fillcolor="#399de5ff"] ;
874 -> 876 ;
877 [label=<ENEMREDACAO &le; 850.0<br/>gini = 0.444<br/>samples = 3<br/>value = [1, 2]>, fillcolor="#399de57f"] ;
871 -> 877 ;
878 [label=<gini = 0.0<br/>samples = 1<br/>value = [1, 0]>, fillcolor="#e58139ff"] ;
877 -> 878 ;
879 [label=<gini = 0.0<br/>samples = 2<br/>value = [0, 2]>, fillcolor="#399de5ff"] ;
877 -> 879 ;
880 [label=<CURSO &le; 30.5<br/>gini = 0.5<br/>samples = 2<br/>value = [1, 1]>, fillcolor="#e5813900"] ;
870 -> 880 ;
881 [label=<gini = 0.0<br/>samples = 1<br/>value = [1, 0]>, fillcolor="#e58139ff"] ;
880 -> 881 ;
882 [label=<gini = 0.0<br/>samples = 1<br/>value = [0, 1]>, fillcolor="#399de5ff"] ;
880 -> 882 ;
883 [label=<CURSO &le; 43.5<br/>gini = 0.469<br/>samples = 8<br/>value = [3, 5]>, fillcolor="#399de566"] ;
865 -> 883 ;
884 [label=<gini = 0.0<br/>samples = 3<br/>value = [3, 0]>, fillcolor="#e58139ff"] ;
883 -> 884 ;
885 [label=<gini = 0.0<br/>samples = 5<br/>value = [0, 5]>, fillcolor="#399de5ff"] ;
883 -> 885 ;
886 [label=<gini = 0.0<br/>samples = 1<br/>value = [1, 0]>, fillcolor="#e58139ff"] ;
856 -> 886 ;
887 [label=<ENEMNATURAIS &le; 664.45<br/>gini = 0.452<br/>samples = 29<br/>value = [10, 19]>, fillcolor="#399de579"] ;
855 -> 887 ;
888 [label=<gini = 0.0<br/>samples = 3<br/>value = [3, 0]>, fillcolor="#e58139ff"] ;
887 -> 888 ;
